equals -0.734930 1.158331 0.262593 1.890212 -1.824305 -1.055371 1.738238 0.036797 -0.155371 -0.958804 -0.938623 0.386945 -2.147148 -0.097891 0.266853 0.085577 0.125919 -0.712383 -0.135344 0.348444 1.897316 -0.004484 -0.383459 1.151162 1.001039 -0.256339 0.924889 -0.426787 -1.220452 0.679429 0.284298 -0.559008 -0.976749 0.103827 0.201274 0.602968 0.304294 -0.762895 -0.206048 -1.221176 -0.549720 -0.239266 -0.380500 -1.199995 0.016280 -0.655127 -0.208184 0.613595 -0.378737 -0.385663
the 0.510182 0.080305 -0.395336 1.722365 -1.271278 -0.088259 -0.008949 0.787664 1.401203 -2.211731 0.521525 -0.046608 1.169280 -0.864013 -1.501984 -1.646148 -0.657877 1.629537 0.596242 0.342816 -0.154268 0.510190 0.910402 -0.343575 0.111609 0.189334 0.578129 -0.853637 -1.446833 0.568370 0.639696 -0.561677 0.577711 0.976037 0.955787 0.589303 0.059226 0.366439 0.787257 0.182172 1.572005 -1.037293 0.507728 -0.578784 0.732131 -0.568089 -1.129876 1.932382 1.104305 0.822576
and 0.138697 0.140764 0.128658 2.021275 -1.209760 0.631864 0.925632 1.248617 0.502778 -0.193369 0.076402 0.418442 0.237791 -0.748287 -0.980773 -0.828567 -0.440763 0.330200 -0.753564 -0.049383 0.366409 -0.662635 0.302584 0.873401 1.738852 0.061860 -0.178104 -1.573764 -2.138797 1.734401 1.898037 0.703626 -0.933868 0.180561 -0.050334 0.134496 -0.809489 0.147109 0.225913 -0.862198 -0.001824 0.012978 0.359420 -0.252119 -0.287562 -1.427131 0.285025 1.699466 -0.785685 0.487713
get 0.347318 0.697939 0.733256 2.210488 -1.641868 -0.351361 0.833769 0.388491 0.202726 -0.647846 -0.240964 -0.550649 -0.842001 0.437793 -1.039996 0.471276 -0.674944 -0.171400 0.161532 -0.181008 1.053112 -0.342310 -0.364307 1.462484 1.226685 -0.169386 0.931326 -1.170477 -2.053945 -0.018852 0.468145 -0.876858 -1.166973 -0.275710 0.169122 0.289435 0.670922 0.862976 0.437378 -0.159981 0.555163 -1.018246 -1.353190 -1.155910 -0.094954 -0.178359 -0.017407 0.157783 -0.861024 0.420753
as 0.356752 -0.163672 -0.280723 2.143166 -1.098136 0.114915 0.981071 0.781119 0.392428 -0.291150 0.209210 -0.088512 -0.548894 -0.228249 -0.720023 0.307191 -0.099613 0.221708 -0.336339 -0.357320 0.116564 -0.170728 -0.363159 0.951045 1.712444 -0.002998 0.424885 -1.227271 -1.933599 1.646100 1.618250 0.456603 -0.365002 0.345675 0.113751 -0.185879 -0.275695 0.130940 0.343504 -1.287515 0.234190 -0.480239 0.645988 -0.214739 -0.435767 -1.800987 0.231661 1.581361 -0.867178 0.654206
if 0.032781 0.204156 0.499880 1.273864 -0.325595 0.139503 1.085754 0.385549 0.589931 -1.308070 0.345962 0.695176 -1.165566 -0.063228 -1.233963 -1.146353 -0.716132 0.079503 -0.878780 -0.747839 1.698933 -0.204638 1.390278 0.540002 1.541581 -0.192787 0.865574 -0.747041 -2.053708 0.788502 -0.321818 -0.421588 -1.157404 -0.109252 -0.145637 0.264148 -0.276316 -0.251826 0.044870 -0.695969 -0.646882 0.472471 -0.419395 -0.349788 0.466913 -0.817440 -0.388069 1.185342 -0.065626 -0.278093
takes -0.226806 -0.058235 0.368319 2.503216 -1.360327 0.088814 0.630714 0.622350 0.051531 0.055756 -0.311943 0.059714 -0.431291 -0.274592 -0.887327 -0.012543 -0.104192 -0.177602 -0.011208 -0.465935 -0.028289 -0.391128 -0.153020 1.189340 1.361210 0.199779 0.227536 -1.119179 -1.654297 1.723994 2.189124 0.280986 -0.836855 0.087867 -0.044285 0.078534 -0.519535 -0.021449 0.521919 -1.789695 0.225229 -0.491042 0.715426 -0.592553 -0.860608 -2.051032 0.983901 1.300959 -1.512313 1.384136
runs -0.014409 0.117607 0.318001 2.173833 -1.191681 0.112558 1.090157 0.701184 0.103272 -0.187557 -0.132534 -0.105449 -0.588846 -0.176930 -0.693476 0.031858 -0.032456 -0.194745 -0.384617 -0.454088 0.197799 -0.346868 -0.367550 1.226363 1.677679 -0.030398 0.135712 -1.060997 -1.810092 1.485389 1.825128 0.395438 -0.778830 -0.078294 -0.133540 -0.044619 -0.283149 0.083009 0.408668 -1.530500 0.024533 -0.362759 0.401033 -0.323152 -0.600234 -1.740492 0.454934 1.176530 -1.153790 0.766234
follows 0.016327 -0.058711 0.136206 2.143506 -1.303005 -0.120795 1.249200 0.505444 0.274059 -0.078664 -0.082884 -0.303737 -0.769451 -0.269667 -0.631361 0.455123 -0.117731 -0.429222 -0.435069 -0.634988 0.302182 -0.242654 -0.588449 1.359292 1.712548 -0.152344 0.365151 -0.895442 -1.704542 1.708468 1.884974 0.395803 -0.718140 0.002671 0.042796 -0.237675 -0.289158 0.055379 0.352975 -1.727140 -0.071759 -0.467130 0.483011 -0.134142 -0.667765 -1.734638 0.356301 1.235552 -1.079876 0.750406
to -0.289612 0.934533 0.652519 0.618314 -1.609797 -0.068154 -0.949478 -0.171545 0.459642 -2.063341 0.082774 -0.014755 -0.091308 0.811536 -0.662195 0.406261 -0.341168 1.133291 -0.070822 0.148114 1.165111 0.432098 -0.373503 -0.154754 1.425929 -0.037425 1.026813 -0.775172 -2.125892 0.385931 1.112883 -0.454358 1.338511 0.659546 0.382801 0.306860 -0.129165 0.836701 1.395939 -0.305319 0.132740 1.128703 0.156841 -0.644825 0.447468 -0.546320 -0.099953 2.427198 1.300573 0.601002
string -0.272917 0.150499 1.557719 1.917178 -1.782633 -0.755021 0.538895 0.797929 0.394334 -0.894543 -0.016480 0.227137 -0.397968 1.031818 -1.262724 0.326709 1.185937 -0.827049 -0.234037 0.410887 1.404670 -0.156883 -0.653504 1.381212 1.734247 -0.737104 1.085892 -0.221647 -1.493033 0.686314 1.215533 0.028358 0.467907 -0.273826 0.433099 1.300116 -0.382670 -0.446499 0.709244 0.548962 0.238283 0.078837 -0.024869 -1.169572 -0.606358 0.067490 -0.324927 1.424432 -1.267268 0.284867
by -1.164594 0.739499 -0.647270 1.660419 0.426007 -1.442522 0.585920 0.845797 1.194459 -1.291847 0.724968 -0.155530 -0.205725 -1.760550 -1.215207 -0.351208 0.127964 0.668436 -0.719227 0.391662 0.906861 -0.421246 -0.012465 0.102321 1.035280 0.523235 -0.080437 -1.095678 -1.491154 0.474683 -0.009464 0.586674 1.071148 0.767016 0.254550 0.880865 0.867549 0.801747 0.536573 -0.240378 0.984303 -0.239770 -0.258524 -1.651016 0.608285 0.031504 0.085301 1.417059 1.385603 -0.070717
a 0.233488 0.432963 -0.603236 2.438363 -0.689362 -0.280853 -0.421931 0.975673 -0.446922 -0.959983 1.341106 -0.206275 0.739930 -0.248955 -0.504490 -0.371915 -0.206660 2.318686 0.398529 1.303080 -0.102018 1.074239 0.610735 -1.174675 0.711831 -0.269918 0.465711 -0.999145 -1.747023 0.964387 -0.056800 -0.275929 0.998517 0.884607 1.211917 0.712318 -0.240120 0.961410 -0.162928 0.205021 -1.010917 0.247996 0.366986 0.061065 0.802053 -0.655562 0.094055 1.205563 0.107948 0.392589
is -0.501569 0.042856 -0.986326 1.137362 -0.781162 -0.940122 1.129133 -0.106867 -0.399539 -0.645487 0.640469 -0.065893 0.392897 -0.296573 -2.073936 -0.550261 -1.026145 0.372082 0.253524 -1.028655 0.730961 0.789599 0.906420 0.445842 0.653165 -0.524811 0.986264 -1.006501 -1.910010 0.196115 0.438569 0.312932 0.363900 -0.024805 -0.155330 -0.362169 -0.093774 0.570931 0.182948 -0.785307 -0.134648 0.066366 0.792792 -0.813816 0.646206 -0.980220 -0.416933 2.071965 0.540042 -1.177456
exception -0.827152 -0.511014 0.409748 1.776615 -0.247735 -0.814719 -0.339036 1.496032 0.794867 0.065305 -0.034523 0.324636 -1.150408 -0.637527 -0.287190 -0.470145 0.186038 -1.051812 0.045789 -1.032629 0.604879 0.761605 -0.327687 1.043961 2.276564 -1.442579 -0.329222 0.264524 -2.111186 0.478559 0.499914 -0.552034 0.513986 0.097051 0.914864 -0.170208 1.360065 -0.477716 0.588223 -0.752283 -0.062395 0.446404 -2.061765 0.252273 0.640821 -1.426010 -0.727014 1.443315 -0.287240 0.664922
null 0.117413 1.069159 0.527098 1.250209 -0.454803 -0.857597 1.395480 -0.091546 0.894312 -0.886730 -0.039298 0.066110 -1.497921 0.305093 -0.556551 -0.241588 0.575496 0.003695 -0.422628 0.101762 1.907405 -0.368621 0.788228 1.514690 1.305987 -1.227298 0.759439 -1.375000 -2.652694 0.160703 -0.437139 0.002999 -0.593770 0.304713 -0.439956 -0.020504 0.270577 -0.546323 -0.222898 -1.453665 -0.470909 0.215780 -0.161866 0.318497 0.289310 -0.811803 -1.343490 0.178351 -0.723457 -0.032621
than -0.271383 0.188991 -0.072185 -0.189517 -0.723243 -0.062455 1.565492 0.348550 0.654437 -1.784823 0.208142 -1.028474 -1.311964 -0.711710 -0.028196 0.065794 -0.346406 0.956077 -0.763287 -0.336610 1.464520 1.367362 -0.855003 1.329494 2.383471 -0.213077 0.756161 -0.579182 -0.784912 -0.149238 1.217686 0.549518 -0.630525 0.457494 1.968597 1.679854 -0.056163 0.114637 -0.073335 0.094363 -0.564557 -0.771634 -0.746199 -0.082747 -1.472628 -0.221141 -0.054625 1.094158 0.418452 0.154877
of -0.271786 0.449270 -0.163044 2.063276 -1.178799 0.075270 0.296669 1.074705 0.683929 -2.790345 0.237240 -0.092707 0.705916 0.955869 -0.471158 -0.215319 -0.586790 0.162253 -0.222381 1.126525 0.437695 0.543229 1.244974 0.028681 0.510447 0.245350 -0.279426 -0.377808 -0.846085 0.916656 -0.075487 0.166057 0.511190 0.289497 0.587613 -0.166503 0.655368 0.712686 -0.970606 -0.162482 1.077781 -0.341196 0.337516 -0.242752 0.035787 0.304849 -0.723890 2.377466 -0.253552 0.204600
name 0.474144 -0.195104 -0.492134 2.533965 -0.489201 -0.718334 1.111185 0.392323 0.221269 -0.798165 0.335152 0.056614 -0.713817 0.887700 -1.340784 -0.700335 0.201795 -0.031196 -1.184469 0.897289 0.109117 0.411576 -0.845110 1.309772 1.751180 -1.606695 0.472766 -0.147035 -2.105750 -0.743089 0.026553 -0.182314 -0.523194 -0.234638 0.018332 0.866836 0.053381 0.318365 0.388192 -0.075134 -0.263680 -0.484708 0.143300 -1.028286 -0.032547 0.206291 -0.075768 0.559054 -0.959461 -0.256420
" -0.886866 0.283069 -0.790816 1.164681 -1.459666 -0.223512 -0.161738 0.986065 -0.381841 -0.068593 0.264286 0.332065 -1.059397 0.505506 -0.026434 0.522115 -0.111214 0.192345 0.609912 -0.884325 1.403674 -0.404556 -0.916651 1.628235 1.198098 -1.161923 -0.662892 0.811760 -1.932040 0.015525 -0.780595 -0.118946 0.186724 -0.531234 1.211529 0.228457 0.638747 0.561720 0.942603 -1.206717 -0.090143 0.031321 0.044808 -0.591386 1.374204 0.162690 -0.241365 1.592268 -0.328277 -0.819309
plus -0.107216 0.066651 0.121976 1.741935 -0.685808 0.303657 0.353564 0.940897 -0.237914 -0.879138 0.055406 1.135218 -0.764916 0.679378 -0.407763 0.428570 -0.616812 0.395546 0.307011 -0.052311 0.914033 -0.255477 -1.074801 1.456490 1.663657 -0.681787 -0.397405 1.484542 -2.081887 -0.260546 -0.561821 0.529063 -0.025330 -1.087397 1.091451 0.732446 1.252532 1.271712 0.734448 -0.948644 0.451157 0.762914 -0.992073 -0.921428 1.459401 0.619555 -0.451498 1.497673 -0.601808 -0.700976
for 0.204220 0.098802 0.134720 1.466290 -0.803872 -0.665487 -0.473835 1.410983 0.219927 -0.456767 0.067359 -0.535366 -0.080175 0.117353 -1.216745 -0.014895 -1.501956 1.829199 -0.552513 0.244918 0.867365 0.235191 -0.037174 -0.158512 1.076581 0.040258 0.296978 -0.447568 -1.088368 0.124612 1.148116 -1.386352 0.058803 0.095654 1.604769 0.757273 0.697763 0.934728 -0.210374 -1.325955 0.039241 -0.569789 0.510941 -0.846198 -0.789165 0.067268 -0.680204 1.251896 0.208506 -0.555387
value 0.365063 -0.389149 0.033676 1.624535 -0.798747 -1.059450 1.414102 0.736326 0.679258 -1.656835 0.682107 0.538927 -0.983942 0.670503 -0.409879 -0.557017 0.210355 0.820712 -0.351602 -0.290286 1.633892 -0.308506 -0.059108 0.412706 0.320056 -0.627287 -0.179085 -0.824684 -1.759929 0.169811 0.350157 0.348318 0.739037 -1.033046 -0.377780 -0.496361 0.256916 0.498667 -0.726542 0.889473 -0.475119 -0.091374 -0.398987 -1.029527 -0.549529 -0.280618 0.088278 1.564641 -0.799595 0.656290
set 0.755976 -0.168136 0.450639 1.232253 -1.938719 -0.451502 0.460363 0.151743 0.174513 -1.305043 1.361274 -0.601407 -0.910110 -0.732719 -0.729591 -0.295255 -0.042747 -0.310018 -0.033943 -0.531282 0.850832 -0.543147 0.344657 1.408781 -0.669059 -0.423051 -0.067737 -0.810439 -1.711377 1.064465 0.672030 -0.990985 -0.466600 0.446406 -0.361467 -0.461421 1.771320 -0.016553 0.639756 -1.090229 -0.626703 0.277124 -0.335206 -2.320092 -0.279152 -0.431984 -0.392384 0.851408 0.055745 0.667539
type 2.183652 1.250142 0.140651 1.453385 -0.621052 -0.552512 1.098754 1.658365 -0.938360 -0.531793 -0.535683 0.771646 -0.146864 0.274814 -1.402762 -0.099875 0.446078 0.180410 -0.180309 0.961261 2.950634 0.480740 0.030416 1.120011 1.252929 0.090106 0.088837 0.278528 -1.177510 0.313525 -0.081138 0.086755 -0.198284 0.951507 1.228543 0.472799 0.463535 0.161530 -0.034971 -0.405489 0.370327 0.749327 0.233510 -0.279812 -0.503117 -1.524471 -0.364480 0.558511 -0.730547 0.807519
index -0.201879 0.983845 0.210935 2.255262 -0.539357 1.486154 -0.060110 -0.140346 0.345004 -1.014630 0.205204 1.175402 -0.447833 -0.220476 -1.243865 0.123008 -0.630723 0.304614 -1.552011 0.113222 1.308429 0.247633 0.056620 0.319963 0.154714 -1.832453 -0.265390 -0.873099 -0.829593 -0.000067 0.616194 0.775187 -0.267000 -0.578470 1.506078 1.487231 0.020602 -0.278005 0.599848 -0.904732 -0.237440 -0.532178 -1.323173 -0.403776 -0.613477 -0.717028 -0.188494 0.950018 -0.121012 0.341827
multiply -0.748666 0.744683 -0.511805 1.403485 0.469667 -1.117833 0.537407 0.846905 1.063634 -1.398839 0.842237 -0.174959 -0.020215 -1.923589 -1.273722 -0.515711 0.175159 0.688701 -0.706539 0.454570 0.804717 -0.268979 0.063333 0.028192 1.080854 0.534288 0.144488 -0.736974 -1.382978 0.414344 -0.070722 0.841425 1.176319 0.708832 0.383820 0.903944 1.072918 0.652639 0.565479 0.075740 1.008521 -0.035552 -0.214018 -1.639130 0.527050 -0.357682 0.099653 1.136870 1.404502 -0.153920
in -0.914505 0.292590 -0.256538 2.381786 -1.313191 0.300675 0.289955 0.376502 0.530681 -1.347112 0.505764 -0.481942 -0.499875 -1.804023 -1.672562 0.228606 -0.259940 0.355315 0.620338 -0.935507 0.700980 0.241605 0.029190 0.322805 0.487203 -0.200200 0.594884 0.303995 -0.259320 -0.329901 0.118639 -0.201631 0.290725 0.592138 0.845503 -1.048775 0.208012 1.225661 -0.775947 0.140750 0.212648 -0.257489 0.315053 -0.263855 -0.096793 0.343977 -0.818277 1.344464 -0.190494 0.959041
builder 0.530312 -0.540477 0.716899 2.874129 -0.495204 0.644327 -0.034875 -0.442091 1.132959 -0.378920 -0.443734 -0.472038 -1.411120 0.531301 0.055606 -1.510483 0.554869 -0.796139 -1.226759 0.001945 1.132934 1.052074 -1.173983 1.074031 -0.568607 -0.331046 -0.360003 -1.019957 -0.810192 0.219679 1.538206 0.015268 1.186501 -0.029951 0.032781 1.186409 -0.081644 0.795572 -0.817550 -1.120978 -0.592659 -0.732965 0.268878 -1.700233 -0.096849 -0.653224 -0.273076 0.526772 -0.046581 0.859805
be 0.376358 -0.613227 -1.280083 0.425455 -0.640301 -0.128862 0.810350 -0.436681 1.595766 -1.015655 1.149821 0.164263 -0.189164 0.694413 -1.629160 0.679823 -0.358636 1.011714 -0.315518 -0.766279 -0.027537 0.570255 -0.480359 -1.069410 0.663298 -1.096956 0.045273 -0.965355 -1.459729 0.342257 -0.680400 0.147799 1.503533 1.311833 0.650843 -0.718238 -0.035030 1.024585 -0.334786 -1.166782 0.244148 0.617768 -0.195724 -0.370121 0.387026 -0.361620 -1.320829 1.957359 0.880012 0.741444
e -1.029133 -0.005271 0.210131 1.331623 -1.211867 -1.222110 -0.226804 0.893885 0.868035 0.369179 -0.546185 -0.909038 -1.204978 0.492650 -0.543101 0.144547 0.376390 -0.360236 0.110646 -0.850233 1.076127 -0.139011 0.236908 0.071972 2.205627 -1.340387 0.791398 0.538072 -1.610911 0.858229 0.235902 -0.560697 0.030822 -0.174675 0.674241 0.068352 0.505320 -0.640219 1.024409 -0.215645 0.317646 0.056271 -1.949342 -0.124436 0.464111 -0.947371 0.011586 0.493120 -0.931841 0.351579
int -0.719458 0.568364 0.293951 1.282496 -1.062990 0.274593 1.346065 0.458853 -0.070207 -1.403570 -0.359401 0.434189 -1.257252 -0.765781 -0.424987 -0.869723 -0.979149 0.129084 -0.560301 0.874855 1.300214 -0.565164 -0.813586 0.832932 0.886154 0.220729 -0.464179 0.330605 -0.990508 1.355265 1.545399 -0.064222 0.324319 -0.422728 0.195424 -0.028500 1.622354 -0.251721 -0.639360 -0.575968 -1.095046 -0.029322 -0.633981 -1.226644 -1.422403 -0.211905 0.293279 1.118783 -0.709260 -0.550438
equalsequals 0.038010 0.231676 0.582188 1.340710 -0.457576 0.296539 1.296987 -0.093133 -0.237267 -0.821335 0.238904 1.014031 -1.514270 -0.319142 -0.831422 -0.204903 -0.480788 0.038856 -1.037588 -0.310527 1.878363 -0.016742 0.694639 1.258626 1.199143 -0.426502 0.428503 -0.587241 -1.792707 0.593621 -0.158729 0.303725 -1.012419 -0.044343 -0.825766 0.463094 0.556019 -0.063437 -0.040578 -0.412500 -0.745148 0.120769 -0.708210 0.305957 0.241418 -0.870758 -1.414231 0.419037 -0.944430 -0.548685
request 0.230344 -0.363766 -0.713726 1.835475 -0.270923 0.534485 0.276355 0.382842 -0.155622 0.226394 -0.345959 -0.226551 -0.102953 0.351602 -0.632439 0.631204 0.804340 0.292744 -0.411466 -0.942826 1.202693 0.999771 -0.079125 0.556263 0.069141 0.057468 -0.010990 -2.035663 -1.428834 0.998108 0.595779 -0.068764 -0.358504 -0.447485 1.168053 1.063545 0.286895 -0.065563 1.572743 -1.365203 -0.573419 -0.967003 0.157735 -1.731230 -0.956295 -0.140610 -0.901900 0.618788 0.071038 1.519353
state -1.325863 0.932670 0.015227 1.421569 -0.248421 0.735170 0.370724 -1.598176 -0.398005 -0.680763 0.353223 -0.541822 -1.367419 -0.557982 -0.492316 -0.097782 -0.835590 -0.115805 -0.209215 -0.077112 1.027655 1.527714 1.531519 0.773582 0.405671 -1.493301 -1.233742 -0.717669 -1.568346 1.761226 -0.121475 -0.161751 0.286921 0.258507 0.545034 0.130908 0.176859 1.905757 1.119947 0.029645 0.510872 -0.797026 -0.220986 -0.106426 -0.179809 -0.528083 -0.696896 1.168211 -1.144025 -0.056192
shard -0.376956 0.499401 0.139465 0.937008 -0.947527 0.967694 -0.313658 -1.162318 0.523416 -1.362669 -1.678305 -0.176600 0.085515 -1.481238 -0.165616 0.524994 -1.087816 -0.194335 -1.131513 -0.125025 1.255309 0.581272 0.403648 -0.094512 1.005354 -0.631814 -0.115474 -0.764186 -1.786306 0.193389 -0.056521 0.238918 0.445894 -1.603935 1.478064 0.773349 -0.498474 0.158261 0.234959 -1.661880 -0.939488 -1.480677 -0.074988 0.073846 -0.134381 -0.511456 -0.800133 1.197063 0.434145 0.150899
id -0.100446 0.312218 0.978045 1.497329 -1.382338 -0.001695 -0.017785 -0.033923 -0.004416 -0.999557 -0.851548 0.012895 -0.507076 -1.263700 -0.723684 0.333591 0.662701 0.563825 0.013921 0.311565 0.861915 0.441675 0.072874 1.330237 0.630459 -0.510526 0.150709 -0.077349 -1.539244 0.620998 -0.425836 0.337656 -0.008342 -1.343642 0.741151 0.264195 -0.211959 1.206301 0.763703 -0.804654 -0.496749 -0.968330 -0.596619 0.560553 -0.623190 -0.665347 -0.686651 0.876456 0.088305 0.439789
{@link 1.632630 0.036944 -1.547120 0.908842 -0.273476 0.718308 -2.178887 1.387699 0.098203 -1.135230 0.403732 0.790259 0.688368 -0.588423 -1.291921 -0.909351 -1.091962 2.058609 0.147323 -0.665687 0.552597 0.386725 0.522566 -0.494752 0.066568 -0.058989 0.229279 -1.272191 -1.114955 0.373113 -0.692229 -0.408974 1.431514 0.980192 0.428084 -0.857759 -0.861253 -0.175861 -1.772231 0.460868 -0.782044 -0.171793 0.738102 -0.616962 0.227710 1.047968 0.299999 0.868908 0.583712 0.169472
that -0.141909 -0.386329 0.121560 1.690996 -1.494412 0.706308 -0.109123 -0.010293 1.207559 0.366418 0.782166 -0.292272 0.394073 -0.482063 0.096157 0.958909 -1.690118 1.463112 -0.181726 0.144593 0.286629 0.032205 1.023720 -0.549600 1.303216 -0.728818 0.129992 -1.842906 -1.008015 0.072490 0.422650 -0.347880 0.236829 0.897625 0.306488 0.903883 -0.222693 1.353983 -0.773958 0.730463 -0.107111 0.192633 -0.248510 -0.873601 1.360634 -0.145430 -1.090515 1.356272 0.545525 0.724233
0 -0.721566 0.645048 0.466844 0.635081 -0.978580 0.614006 1.124130 1.034617 0.465260 -1.344987 -0.107812 0.530495 -2.105166 -0.049073 0.087223 0.449305 -1.543989 0.658090 -0.769654 -0.409830 1.255248 -0.270488 -1.101358 0.906061 0.857429 0.134467 0.243784 0.217005 -1.166432 0.970196 0.001942 -0.324532 -0.247626 0.404868 -0.325512 0.612644 0.975136 0.321197 -0.419526 -1.008606 -0.975675 -0.096266 -0.584862 -0.443647 0.004836 0.203356 -0.583957 0.984404 -0.104800 -0.550371
size -0.526853 0.372918 -0.224825 1.031305 -0.621335 0.706238 2.742333 0.152575 0.354469 -2.024601 -0.184348 -0.918435 -0.109875 0.655234 -0.202143 -0.321642 -1.445311 0.984755 -0.918316 -0.803381 0.575762 -0.528679 -0.198910 0.978842 0.888789 0.668595 -0.422943 0.147708 -0.335723 0.969704 1.552125 -0.600477 0.866411 -0.214259 0.795934 -0.333025 0.351514 0.650335 -0.313803 -1.196691 -0.450949 0.571185 -1.245981 -0.610412 1.074154 -0.355183 -0.121614 0.609890 -0.829690 -0.019350
message 0.148648 0.635902 -0.350837 0.616554 -2.001684 -0.457093 0.777984 1.732511 -0.030422 -0.240387 1.024443 -1.339138 -0.331650 0.314688 -0.785376 -0.544980 1.273217 -0.282071 0.478099 -0.062630 0.583012 -0.057135 0.832789 1.038177 1.027308 1.160192 0.455298 -0.234816 -1.390309 0.153501 -0.849689 0.075929 1.264299 1.311563 0.561057 -0.019421 0.500507 1.115881 1.244992 -0.581777 -0.128652 0.523910 -1.448704 -0.389756 1.131637 -1.389474 0.587740 0.342969 -0.594424 -0.026956
broker 0.913610 -0.007232 0.006637 0.533372 -0.711273 -1.834188 -0.355904 0.562326 -0.305088 -0.961004 -0.681999 -0.252781 -1.687853 -0.576610 -1.455883 -0.549765 0.303072 -0.829886 0.386009 0.210605 -0.022108 -0.926123 0.236047 -0.485899 1.538295 -0.784282 -0.236332 0.671430 -2.170130 1.599216 -0.879594 -1.304085 -0.294129 0.535906 -0.852822 0.585478 -0.421895 0.848928 0.815288 0.540269 1.899046 0.145788 -0.642196 -1.325651 0.069026 -0.325101 -0.170604 0.705194 -0.625973 -0.305087
boolean -0.502263 0.176769 0.209559 1.417024 0.356941 0.214545 0.483796 -0.646913 0.230399 -0.586355 -0.358982 -0.046090 -1.370176 -0.446174 -1.892861 0.241005 0.334067 -0.881492 0.266473 -0.033547 1.045665 -0.180533 0.376001 0.281132 0.869295 0.361702 0.163761 -0.114167 -1.422062 0.591953 1.315998 0.129763 -0.884673 -0.074391 -0.253622 -0.234123 -0.218748 0.604294 0.348510 -0.552572 -1.247305 0.986603 0.726573 -1.155319 -0.629992 -1.621814 0.719669 1.975289 0.056274 0.180535
this 0.823458 -0.447925 -0.080549 1.295564 -0.416470 -0.477192 -0.793707 1.111989 0.715944 -0.468465 0.509151 0.046932 0.708040 0.147192 -0.941981 -0.450943 -1.096758 1.236877 0.893757 -0.207275 0.006705 0.749804 1.085726 -0.382624 -0.811228 -0.426222 -0.007329 -1.292539 -1.398035 -0.273571 0.069607 -0.347440 0.343523 0.676625 0.841193 -0.664588 0.816668 0.940290 -0.152966 -0.322404 -0.512133 -0.367601 0.604386 -0.917364 0.342501 0.315734 -0.437836 2.117004 0.749297 0.208707
node 0.019737 -0.350059 -0.215230 0.993253 -0.758783 -0.335619 0.708108 -0.988631 0.776085 -0.791530 -1.377689 0.370600 0.064877 -1.318159 -0.548491 0.377018 -0.148984 1.711301 -0.044698 -0.307644 0.363704 0.409246 -0.541247 1.095738 0.638461 -0.116768 -0.323745 -1.826748 -1.560069 0.232463 -0.062703 -1.022148 -0.346556 -1.067092 0.944594 1.365602 -1.518259 1.513906 -0.410570 -0.317679 0.038936 -0.319380 -1.088613 0.125825 -0.496576 -0.776727 0.017260 1.114670 -0.136833 -0.733182
else -0.440200 0.359164 0.582146 1.780057 -0.245165 -0.962741 1.169694 0.286242 -0.034915 -1.694283 -0.218796 0.683694 -1.557357 0.617176 0.011288 -0.301307 0.244235 -0.349975 -0.587528 -0.642644 1.694755 0.378271 0.911702 0.570471 1.062925 -0.413383 0.548349 0.154735 -1.304077 0.480295 -0.507028 -0.000770 -0.619360 -0.121413 -0.433000 0.093658 -0.245750 -0.062481 0.197333 -0.415217 -1.137196 0.545698 -1.173143 -0.113132 0.525711 -0.468180 -0.321000 0.633976 -0.217411 -0.056724
or -0.053749 -0.100026 0.266015 0.985947 -0.424316 -0.071929 0.896910 0.393770 -0.382212 -1.327516 1.082721 1.383797 -0.435831 -0.834111 -1.470035 -0.413894 -0.444613 -0.157348 -0.602247 -0.555632 1.419318 2.046648 1.228411 -0.239351 0.926242 -0.677766 0.399587 -0.453970 -0.859201 0.612275 -0.565344 0.350864 -0.616902 1.104919 0.477962 0.082722 0.361433 0.076669 -0.270482 0.045911 -0.960006 0.130926 0.145393 0.026717 0.440857 -0.753720 -0.848986 1.364126 -0.022251 -0.658909
logger -0.957938 0.860045 -0.423104 0.340347 -1.363738 0.333076 -0.258837 0.384489 -0.350268 -0.433675 -0.235634 -0.535300 -1.036031 0.326672 -1.064934 -0.468730 0.989937 -0.819095 -0.571113 -1.558292 1.222583 -0.568542 -0.131295 0.060356 2.348768 -0.582704 -0.410046 0.265274 -2.061857 0.689872 -0.309150 -1.480443 -0.655903 -0.940188 1.114350 -0.697556 -0.775022 0.521405 1.537794 -0.388421 0.542149 -0.216149 -0.722831 -0.022246 0.297887 -0.110608 0.498182 0.679518 -0.557967 -0.707164
not 0.273958 -0.005833 -0.753862 0.732764 -0.816378 -0.245617 0.704058 0.257368 0.406616 0.555902 0.679348 0.483968 -0.224129 -0.469264 -2.435528 0.402333 -1.693763 -0.160393 0.306652 -0.493144 1.183924 0.455041 -0.044780 0.022952 1.324791 -1.487568 0.127878 -0.977097 -1.313408 -0.294168 -0.538166 -1.028230 0.258311 0.293933 -0.140580 -0.069017 -0.179725 0.425459 0.154013 0.300503 0.045170 -0.033315 -0.427311 -0.491632 0.884623 -0.576763 -1.080442 1.830722 0.766048 0.181413
with 0.881478 0.069782 -0.172634 2.312560 -1.053997 0.480844 -0.499529 0.453690 0.474857 -0.755943 0.277730 0.293166 0.765086 -0.520145 -0.622956 -0.353802 0.381487 1.177409 -0.659729 -0.361192 -0.099430 -0.174473 0.189276 -0.114169 1.432077 -0.134180 -0.434584 -0.182949 -1.326570 0.617624 -0.710115 0.237153 0.427564 0.957032 1.324097 0.597945 -0.318133 0.195585 -0.184476 -0.033631 -0.295885 -0.885768 1.204462 -0.276269 0.600936 -0.607988 -0.838296 0.639482 0.352389 -0.929145
object 0.810318 0.270247 -0.339622 1.199808 -0.934979 -0.399683 0.634170 0.996852 0.587647 0.021344 -0.803671 -0.364178 -0.990428 0.240795 -0.960605 -1.359355 0.381852 0.259826 -0.539770 1.149520 1.002444 0.196110 -0.534065 -0.421876 0.395901 -0.690272 0.726004 -1.134227 -2.063052 -0.890202 1.426276 0.982907 0.723781 0.786250 0.423215 -0.063893 -0.552763 -0.343256 -0.006035 1.086472 -0.958096 -0.395739 -0.770156 -1.101939 0.013884 -0.840593 0.188533 0.550647 -0.187151 -0.414198
notequals 0.195180 0.892015 0.678350 0.902723 -0.457225 0.203607 1.238186 0.190203 1.023085 -0.490410 -0.474568 0.454088 -1.061809 0.302263 -0.670391 -0.432272 0.297931 0.063434 -0.328328 0.239548 1.859172 -0.060806 1.148552 1.319091 0.881499 -0.491221 0.109252 -0.625090 -2.012054 -0.011796 0.063556 -0.309617 -1.040443 -0.174058 -0.348352 -0.113430 0.469205 -0.097512 -0.328515 -1.096319 0.038033 -0.068430 -0.438691 0.293911 0.086438 -0.511443 -0.687898 0.027700 -0.979218 -0.056260
from 0.248600 0.660375 0.035139 1.368563 -0.729821 0.225812 -0.522225 0.600899 0.372319 -1.201886 0.300873 0.245410 -0.572606 -1.037726 -1.453878 -0.025333 0.305875 0.763046 0.482950 0.972332 -0.461014 -0.269361 0.031267 -0.404312 -0.190612 -0.118267 0.426047 -0.458093 -1.951592 -0.564304 0.628642 -0.440660 1.361910 0.297112 1.457413 0.274750 0.082993 1.340082 0.274237 -0.540036 -0.450559 0.527240 -0.094245 0.123851 -0.585717 -1.058458 0.368191 1.666760 -0.782636 -0.004543
field 1.398573 0.196126 -0.376300 2.725291 -0.710338 -0.060735 0.580320 0.382732 0.378669 -0.830973 0.440929 1.370129 -0.846159 0.725589 0.098502 -0.518791 0.178471 0.553787 -1.266454 -0.063573 0.709082 0.095223 -0.774614 0.648786 0.759285 -0.157857 -0.071557 0.147385 -0.010617 -2.006666 1.236582 -0.160470 0.209954 -0.187083 -0.519088 0.527285 -0.060331 0.326663 -0.016882 -0.509443 -0.247991 0.038007 1.084053 -0.387027 -0.166458 -1.084816 -0.950147 1.131373 0.224596 0.996570
bymultiply -1.320075 0.755297 -0.040872 2.004869 0.381067 -1.309209 0.170582 0.591842 0.946638 -0.705945 0.537484 -0.049101 -0.054083 -1.261966 -0.994722 -0.034147 0.683714 0.366387 -1.174727 0.205835 1.044721 -0.443129 0.463384 0.614595 1.291478 0.489742 -0.340221 -0.623405 -1.210070 0.273495 0.090166 0.900808 0.436127 0.310542 0.045815 0.419091 1.032815 0.432129 0.504286 -0.573621 0.595321 -0.163066 -0.372190 -1.215335 0.446912 -0.032424 0.184314 0.643643 0.853249 -0.493176
on -0.477243 0.289314 -0.262152 0.605356 -0.769340 0.336931 0.516291 0.424220 0.264233 -0.444226 -0.652076 0.261562 0.451456 -0.317879 -0.970956 -0.057031 1.035808 1.923667 0.546886 -0.643000 0.420866 0.724544 1.414751 -0.704197 1.711806 -0.554890 -1.119024 -0.357613 -1.005956 0.385381 1.127204 -0.584588 0.784839 0.391735 -0.017704 -0.228304 -0.144854 0.442494 -0.045043 -1.320596 0.134542 -0.101615 -0.678170 -0.738659 -0.110778 -0.617291 -0.507340 0.900375 0.550403 0.323809
data 0.073716 0.955154 0.296504 1.251392 -0.340309 1.075869 0.288191 -0.001947 -0.378835 -1.097893 -0.112420 -0.143154 -2.135006 0.747098 -1.349865 -0.449100 0.057027 0.511994 -0.353142 -0.140949 0.221408 -0.191779 0.616076 1.126517 -0.513374 -0.878091 -0.457411 -0.481811 -0.160484 0.386080 0.499189 0.834047 0.404461 0.365103 2.028937 0.819926 -0.331383 0.447573 0.531796 -0.374065 0.393601 -0.000314 -0.526930 -0.402224 0.269322 -1.782435 -0.537014 0.961014 0.682570 0.150666
key 1.028270 -0.806671 1.339548 0.625395 -0.817392 -0.460830 -0.071064 0.284120 0.213157 -1.119759 0.538531 -0.308220 -1.294336 -0.202418 -0.837129 -0.394561 0.284227 1.441225 -0.586525 0.043170 1.286833 -0.927029 -0.549898 0.798381 0.649143 -1.236464 0.095480 -0.814561 -1.753203 -0.426096 0.972981 0.557094 -0.354987 -0.668708 1.040642 -0.094474 0.841029 0.639236 -0.949097 0.501746 -0.104980 -0.673961 -0.467886 -0.362196 0.591451 -0.440907 0.996095 0.124276 0.105636 0.337205
long -0.885712 0.987716 0.274692 1.716886 -0.463988 0.066993 1.257229 1.156711 0.353126 -1.279740 -0.199598 0.572368 -1.394877 -0.499865 0.516488 0.657709 0.545236 1.212136 -0.002295 0.616956 0.965307 -0.366464 -0.381168 0.076087 0.115783 0.820467 0.712606 0.035722 -0.736857 0.943176 0.918960 0.285193 0.139010 -1.374583 -0.300429 -0.862236 0.382316 0.643981 -0.032860 -0.323493 0.062324 -0.911146 -0.971467 -0.590329 -0.864072 -0.745801 -0.119503 1.106633 -0.336809 0.702937
false -0.515699 0.036810 0.006872 1.625185 -0.732766 -0.227187 0.301709 -0.167972 0.008416 -0.528827 0.179130 0.227744 -1.083204 -0.645090 -1.184499 0.537939 0.145423 0.002410 -0.574369 -0.723081 1.660497 -0.036342 0.991061 0.924425 0.722195 -0.184572 0.568086 -0.158293 -1.611619 0.104289 0.494732 0.267317 -1.241096 0.796179 -0.219303 -0.416742 0.139524 0.659574 0.592463 -0.668128 -0.977446 0.554250 -0.526843 -0.349334 0.289407 -1.054124 -0.508682 0.813697 -0.044934 -1.121542
add 0.486679 -0.002626 -0.107957 1.708389 -0.658574 0.085726 -0.241702 0.676279 0.282638 -1.317441 -0.601838 -1.133368 -1.202701 0.125271 0.208317 0.449402 0.027015 0.250913 -0.314702 -0.560068 0.381282 -1.009313 0.333988 1.099240 1.118892 -0.638916 -0.040908 -0.577338 -0.318765 0.199267 -0.079233 0.350065 -0.422521 0.352062 -0.345198 2.064824 -0.276965 0.355238 0.092047 -1.338007 -0.645424 0.384097 -0.698150 -0.717734 0.021785 -0.383489 0.170212 0.304684 -0.252168 1.550506
query 1.036212 -0.194511 -0.040952 2.147631 -0.102601 0.313801 -0.275107 -0.767171 1.685333 -0.571437 0.224735 -0.406687 0.165269 -0.150705 0.069368 -0.745488 -0.349937 -1.280355 -0.287196 0.140606 0.967549 0.300997 -0.998855 -1.336969 0.753371 -0.392090 0.655075 0.220358 -0.169885 -0.172765 1.376959 -1.019788 -0.779877 0.072790 -0.552015 1.502096 -0.653026 -0.127976 0.227634 -0.428953 -1.866608 0.465709 0.666838 -0.424406 0.224962 -0.672755 -0.261984 1.888786 -0.659061 0.666159
cluster 0.177650 0.285250 -0.679121 1.426496 0.069067 0.406225 0.071501 -0.807557 -0.041265 -0.348240 -0.307195 -0.557022 -0.760803 -0.183350 0.015953 0.674132 -0.219645 0.106759 0.014828 0.384397 -0.181332 1.165326 0.731596 0.936797 0.889206 -1.231950 -0.783531 -0.274035 -1.413155 1.927906 -0.223657 -1.037833 -0.127010 0.210144 1.025414 0.278876 -0.575123 1.630326 0.427248 0.237481 0.938552 -0.381383 -0.745561 -1.183673 -0.781459 -0.617736 0.161811 1.061697 -0.866279 -0.145750
connection -1.076300 1.019317 1.508067 0.766293 -0.014251 -1.111290 0.482486 0.055146 -0.009932 0.493516 0.014076 0.303016 0.274900 -0.220710 -0.316001 -1.061637 -0.107728 0.956136 1.749462 -0.750943 0.439564 0.073847 0.019981 1.060884 1.335964 0.014105 0.192433 -0.207061 -1.759247 1.334750 -0.278490 0.875783 0.170490 0.744571 1.057475 -0.557510 -0.880516 0.170666 0.186948 -1.292633 -0.342749 -0.103037 -0.582775 -1.613560 -0.055737 -0.102998 0.449604 0.069245 -0.889977 -0.380866
error -0.102870 -0.109113 0.461564 0.344662 -0.791486 -0.168775 -0.263737 2.915097 0.072797 0.539960 -0.649254 -0.839013 -0.061648 -0.090376 -0.493157 0.115830 0.313664 -0.782541 0.534285 -0.464745 1.626553 0.190631 0.743287 0.046190 2.110662 -0.600452 0.286030 0.673625 -1.522038 1.256011 0.070058 -0.033122 1.343367 -0.095030 -0.382308 -0.834367 0.201801 -0.207499 0.597735 -0.285608 0.558303 -0.856719 -0.958554 -0.715687 0.924935 -0.769937 -0.832065 0.724229 -0.891485 -0.320870
time -2.232587 1.050049 0.418781 2.014225 -1.323688 0.183783 0.906291 1.124789 1.006472 -0.218527 1.075432 1.035585 -0.883502 -0.183141 0.895267 0.380860 0.867732 1.567053 -0.461502 -1.447845 0.350527 1.301583 0.699942 0.308830 0.048670 0.604014 1.312959 -0.687595 -0.312410 -0.090724 -0.027534 -0.764240 0.406392 -0.602888 -0.089972 0.189033 -0.029396 0.562490 -1.086439 0.077989 0.491472 0.137753 0.072896 -0.679307 -1.292034 -0.462581 -0.474395 0.981090 0.313590 0.080954
status 0.570007 -0.112213 0.170342 0.715995 -1.623173 -0.167406 0.792871 0.789119 -0.125181 0.053063 -0.978994 0.115133 -0.528475 -1.991674 -0.434007 0.232621 0.729482 -1.309690 -0.955023 0.215199 0.558971 0.536237 1.609856 0.767129 0.634284 -0.128398 -1.008834 0.123784 -2.177952 0.315017 -0.889141 -1.458433 1.453023 -1.103669 -0.212518 -0.149017 0.379329 0.162347 1.122160 0.104630 -0.025603 -0.199689 -0.094218 -1.659406 -0.415346 -0.517958 -0.666242 0.300318 -0.895143 -0.029276
will 0.624817 -0.133061 -0.427621 0.807547 -0.357906 0.106088 -0.194920 0.195698 1.859372 -0.910227 0.202485 0.350539 0.351681 0.459043 -0.941402 0.202522 -0.820222 0.542459 -0.151422 -1.373007 -0.317081 -0.018016 0.198013 -1.089330 -0.034369 -0.419848 0.415625 -0.988365 -1.474862 0.172894 -0.017623 0.597991 0.858894 1.580280 0.422610 -0.768965 -0.256193 0.196225 -0.088341 -0.054197 -0.128093 0.105569 -0.106803 -0.518726 -0.014025 -0.097588 -1.039998 1.580125 1.436755 0.257453
true -0.556706 -0.084642 0.179326 1.233399 -1.204224 -0.299235 0.163000 -0.061298 0.418667 -0.117686 -0.414001 -0.404884 -1.004773 -0.372144 -1.131201 0.003884 -0.280225 0.027764 -0.504108 -0.487392 1.234632 0.086036 0.791427 0.971121 0.190354 -0.338329 0.452032 -0.068588 -1.856994 0.516200 0.510755 -0.172656 -0.545142 1.076478 -0.521267 -0.161908 -0.060697 0.616290 1.136550 -0.204123 -0.968267 0.460841 -0.574177 -0.744193 0.144750 -1.061135 -0.600753 0.698908 0.463758 -0.957475
settings 0.887236 -0.375686 -0.788985 2.077676 -0.005507 0.807696 -0.565798 -0.419989 0.084439 -1.319762 0.070024 0.434154 -0.272433 -0.098341 -0.334725 0.226693 0.177561 -0.009475 -0.623618 -1.006015 -0.237730 -0.547906 -0.480302 1.058000 -0.213450 -0.571656 -0.109309 -1.659327 -1.019438 0.132438 1.062092 0.470969 -1.254147 0.237160 1.427679 0.499069 0.002283 0.717630 -0.115127 0.420975 0.817575 0.124648 -1.318365 -1.062217 -0.699939 -0.583014 0.545594 0.785012 0.448908 -0.172678
file -0.817148 0.856220 -0.049407 0.990186 0.169753 0.483374 1.103296 0.468115 -0.013929 -1.524585 0.829834 -1.296818 -0.638981 -0.182614 -1.632729 -0.047151 0.101914 0.354041 -1.145121 0.965855 0.277775 -1.243143 -0.360279 0.416363 0.659652 -1.129013 0.535283 -0.028966 -0.600085 0.032332 1.051646 -1.706492 0.218276 -1.132450 1.105241 -0.338078 0.041993 -0.798662 0.406920 -1.038607 -0.104980 0.028777 -0.584652 -0.340324 1.447901 -0.850835 -0.490341 -0.163441 -0.343450 -0.159772
@ -0.641031 0.221107 0.263567 1.119676 0.322421 -0.753801 0.842613 0.171089 0.426153 -0.557432 -0.528143 0.158927 -1.049363 -1.073933 -0.065166 -0.283769 0.528892 0.680245 0.241710 0.569028 1.377871 0.717399 -0.060671 0.343968 1.045747 -0.002693 -0.542713 -0.645920 -0.875670 -0.386049 2.359864 -0.249413 0.494402 0.038401 0.307704 0.598147 0.667714 0.161477 0.289436 0.239238 -0.754505 -0.363627 -1.072986 -0.859475 -0.581776 -0.640950 0.086528 0.653783 -0.046816 1.039711
version 0.142231 0.172970 -0.623394 1.019628 -0.731186 0.611272 0.400642 0.396976 0.636657 -1.192312 -1.100023 0.873945 0.207825 -0.399074 -1.607547 0.837414 1.468359 0.742529 0.087047 1.504067 1.175507 0.644411 -0.906361 0.859412 -0.133263 -1.049833 -0.356091 -1.036666 -0.699572 0.668600 0.194355 0.802720 -0.806077 -0.793785 0.065235 0.567559 0.196005 0.053313 -0.341665 -0.107186 1.213255 0.072352 -0.615341 -0.021174 0.222307 0.081805 0.197753 1.373489 -0.559753 -0.137537
: -0.116219 0.442956 1.071344 0.608849 -0.338504 -0.037087 0.237741 0.146069 0.715226 -0.960690 -0.040211 -0.557958 -0.821065 0.538740 -0.665104 0.808235 -0.440605 1.012165 -0.501179 -0.970266 1.591378 -0.264997 -0.193095 1.235099 1.077039 -0.355113 -0.536591 0.214479 -1.381838 -1.255573 0.418407 -0.136844 0.023633 -0.491024 0.136478 1.299794 0.405950 1.107271 -0.148469 -0.729682 -0.547104 -0.503054 -0.211025 0.062677 -0.135651 -0.612347 -0.596417 0.531204 -1.012984 -0.422415
content 1.320533 0.167325 -0.486138 1.416974 -0.417754 0.193363 0.240313 0.839148 -0.953643 0.009843 -0.785708 0.109597 -1.216256 -0.207222 -0.598222 -0.466992 0.818943 -0.552708 -0.057830 -0.917737 1.782261 0.305042 -0.035700 1.273523 -0.461678 0.655747 0.927834 -0.857048 -1.020762 0.373949 2.074994 1.038494 1.481577 0.439208 -0.064477 0.816625 0.747614 -0.791072 -0.528270 -0.220211 -0.161952 0.632105 -0.355284 -0.435602 0.784011 -0.371648 -1.294100 -0.099179 0.023376 0.154266
list 0.315470 0.229976 -0.470141 1.096040 -0.931814 -1.445534 -0.034441 -0.056239 -0.156250 -2.195387 0.614393 -0.964777 -0.358155 -0.550434 -0.110266 0.718824 -0.389772 0.012512 -0.403932 0.415926 0.826067 -0.429028 0.475820 1.224746 1.310958 -0.614808 0.530588 -0.822113 -0.705121 0.471255 0.631008 0.071507 0.231935 0.872828 0.127383 0.232376 -1.224448 -0.584921 -0.731421 -0.749184 0.313978 0.038036 -0.660179 0.148890 -0.146244 0.284002 -0.184977 0.810327 -0.712067 0.264125
map 0.402188 -0.296062 0.440155 0.258273 -1.669666 -1.333819 -0.218300 0.023967 0.056428 -1.151316 0.640554 -0.422036 -0.707582 -0.729509 0.387144 -0.519818 -0.144902 0.174799 -0.356851 0.402255 2.078346 0.000019 0.220697 1.575287 0.271044 -0.275741 0.160867 -1.458136 -0.574573 -0.173755 1.562662 0.323920 -0.084795 0.033795 1.793004 -0.178440 0.110873 -0.228251 -0.290980 -0.190980 -0.045475 -0.203085 -0.432469 -0.397304 0.160290 -0.479559 0.621527 1.058274 -0.011335 -0.041455
an 0.552463 -0.374828 -0.472712 1.325648 0.254083 -0.405804 -1.732698 1.641217 -0.312142 -0.847377 -0.289177 0.292202 0.471473 -1.051644 -0.547414 0.047498 -1.114193 0.544374 -0.158949 0.187632 0.152126 0.468108 1.489204 -0.121728 0.318386 -0.516065 0.151115 -0.610609 -1.193465 0.540577 0.351762 0.471968 2.001359 1.381644 1.019152 -0.081435 -0.229336 -0.393119 -0.619740 -0.327674 -0.227056 0.233394 -0.309779 0.162514 0.559246 -1.191119 -0.137619 1.295331 -0.251071 -0.330562
buffer -0.766892 0.807192 0.063281 0.373080 -0.950682 1.126355 2.409566 0.230991 -0.281623 -1.214347 -0.635185 0.071244 -0.889053 0.699788 -0.774768 -0.074007 -1.004066 0.878879 0.655476 -0.821868 0.031513 -0.083447 -0.504623 0.626354 -0.848113 0.354785 0.627670 -0.192961 -1.989815 0.953751 1.645755 0.282175 1.090185 1.316585 -0.248705 -0.460349 0.627834 -0.956323 0.959725 0.248074 -0.244453 0.666579 0.360610 -0.121685 1.436398 -0.095797 0.417581 -0.582310 -0.709547 0.584636
context 0.332198 1.615496 -0.024293 1.574629 0.787841 0.763302 -0.272509 -0.655673 0.467903 -0.243640 0.582258 -0.235198 -0.331621 -0.160885 0.718515 -0.526752 0.320018 0.518767 1.075167 -0.727236 1.868776 -0.028436 0.267193 0.377582 1.559408 -0.521845 0.143522 -0.615866 -0.591262 0.055965 2.063529 0.668164 -1.698654 0.082067 0.097506 0.701378 0.476499 0.175395 0.507371 -1.369115 0.122086 -1.002562 0.412515 -0.410341 0.903226 0.092497 -0.020573 0.886869 -0.352548 0.187900
s -0.835685 -0.049070 0.329657 1.174237 -0.660122 -0.638256 0.132960 1.264843 0.079556 -0.744310 -0.531669 0.660179 -0.758428 0.592827 -0.758439 0.281548 -0.079331 -0.156073 -0.273627 -0.297612 0.128977 -0.605700 0.757912 1.111221 0.599443 -0.107958 -0.326079 -0.362435 -1.536470 0.313098 1.261092 0.664670 -0.654891 0.247232 -0.286264 0.569120 1.232730 -0.170324 0.677719 -0.454735 -0.624773 -0.383477 -0.035201 -0.116659 -0.358392 -0.487449 1.556465 1.043549 -0.186130 -0.349948
info -1.281822 1.119053 -0.112740 1.099780 -0.731632 0.083684 0.133326 -0.474538 -1.173339 -1.208067 0.161902 -0.447957 -0.487447 0.386449 -1.168026 -0.456512 -0.105557 -0.760756 -0.461255 -0.178204 -0.105200 -0.370111 0.138246 0.999208 1.793229 0.014471 0.109486 -0.614335 -1.882025 -0.015038 -0.909693 -1.167658 0.304018 -0.633692 1.144752 -0.114180 -0.879374 -0.155819 0.477317 -0.762004 0.488226 -0.699541 -0.406956 -1.145051 -1.118576 -0.480032 -0.324534 0.380628 -0.245784 -0.187267
i -0.906939 0.370883 0.858952 0.719925 -1.427097 -0.006440 0.561390 1.221277 -0.635838 -1.559763 -0.680685 -0.386132 -1.203382 0.721552 -1.010234 0.143180 -1.293686 -0.023817 -0.610466 0.127304 1.839035 0.029381 -0.441918 -0.190456 1.212397 -0.419871 -0.283568 0.450335 -0.153102 1.349982 0.055296 -0.610097 -0.262977 0.554292 -0.468584 1.157749 0.265191 0.137410 -0.163508 0.134008 -0.591881 -0.662290 -1.597051 -1.211707 -0.554628 1.400429 0.098196 0.322607 -0.662791 -0.294783
method 0.288674 0.487361 -0.305355 0.880729 0.232292 -1.347241 -0.121139 1.713537 0.342911 0.980153 -0.670147 0.579140 0.347858 1.116525 -1.488777 0.359159 -0.671439 -0.460749 0.445012 0.432343 0.684463 0.725225 -0.050419 0.263504 1.251992 0.329206 0.162214 -1.559385 -1.506581 -0.432406 -0.285271 -0.621662 0.062365 1.610628 0.906370 0.180407 0.938337 -0.091390 -0.753113 -0.500897 -0.513807 0.209022 1.681412 0.113056 -0.145251 0.992615 -0.345219 1.456482 0.689724 0.290507
routing 0.179217 -0.028220 1.093740 1.721558 -0.769661 0.659459 0.034157 -2.154283 0.332107 -0.907703 -1.556510 -0.314203 0.159932 -0.078544 -0.408230 0.881357 -0.860222 0.185637 -0.726092 0.552810 1.521611 0.147071 0.442470 0.953796 0.711029 -0.228875 -0.822624 0.168775 -0.887944 0.745970 -0.247250 0.697051 0.713057 -0.610180 0.958570 1.165497 -1.023068 0.623991 -0.333659 -0.599216 -0.185338 -0.743805 0.445768 -0.779316 -0.216453 -0.419870 -1.401371 0.282587 -0.066641 0.089061
all -0.172637 0.106985 0.016204 0.550321 -1.093687 -0.015993 -1.159940 0.192446 0.489641 -1.745363 -0.046745 -0.511294 -0.393319 0.143621 -0.802057 -0.243554 -0.236670 0.134494 -0.734562 0.307305 0.095948 -1.379018 1.217824 -0.066316 1.426332 -0.441613 -0.733854 -0.561686 -0.190140 -0.377795 0.447584 -0.236218 -0.947775 1.473502 0.967902 -0.512895 -0.585769 0.339743 0.242617 -0.494136 0.511951 0.489584 -0.146518 -1.074224 -0.544695 0.331787 -0.557837 1.562759 0.169550 0.167290
less -1.039004 -0.219534 0.005573 -0.236341 -0.674014 0.315333 1.712388 1.253121 0.261908 -1.488320 0.751640 0.003437 -1.230656 -0.435703 -0.290822 -0.549552 -1.292424 0.709638 -1.035605 -0.511560 1.489339 0.495127 -1.020277 0.642105 1.041499 0.240370 0.248311 -0.278477 -0.889139 0.815011 0.431434 0.578601 -0.265178 0.031582 0.715300 1.313169 1.282538 0.278420 -0.602198 0.128160 -0.297162 -0.301694 -0.734739 -0.256729 -1.061885 0.156201 -0.233133 1.091047 0.350392 -0.543994
Returns 0.853672 -0.773297 -0.251222 1.941437 -1.396780 -0.645010 -0.558025 0.554767 0.477518 -1.168877 0.714596 0.488832 0.915395 -0.024243 -0.915139 -0.778068 -0.372592 1.445420 -0.810824 0.873663 -0.136756 0.463840 1.654385 -0.448419 -0.362250 0.130082 0.674637 -0.644044 -0.777514 0.431745 0.394333 -0.945812 -0.251523 0.625386 0.634825 -0.423326 -0.329911 0.214016 -0.609481 0.070371 -0.231212 -0.132671 0.039521 0.095361 -0.241284 0.120529 -0.838605 0.898109 -0.436630 -0.482975
source 1.140585 0.280417 0.221558 1.425931 -0.548146 0.411057 -0.064273 -0.966260 -0.322808 -0.533705 -0.116325 0.417879 -0.422862 1.008755 -0.650733 -0.120237 0.312357 -0.047671 0.286903 -0.588063 1.927088 0.373523 -0.087544 0.039430 0.177139 1.024276 -0.120763 -1.107830 -1.584424 0.397869 0.894131 0.818608 0.415426 -0.204817 1.549040 0.484093 0.743252 0.893592 0.149860 -0.772047 0.506499 -1.299883 -0.244442 0.555958 -0.117910 -0.688640 -0.826929 0.088174 -0.209883 1.160516
response 0.061383 -0.365327 -0.033313 1.185132 -0.478197 0.829426 0.641454 1.176498 -0.291471 -0.080553 0.118468 -0.591472 -0.632673 -0.849410 0.327450 1.536282 1.003812 0.478260 0.608684 -1.060105 0.023174 1.314151 1.524037 0.775781 0.624645 0.049195 0.131752 -1.482388 -1.126537 0.288597 0.785248 -0.805374 0.180925 -0.500046 0.093635 0.753222 0.535772 0.397445 0.872808 -0.938264 -1.277753 -0.400178 -0.571484 -1.028519 0.034116 0.361119 -0.581865 0.426639 -0.328920 1.151076
max -0.474163 0.263937 -1.020450 1.105319 -0.722218 0.613654 1.969609 -0.033389 0.536990 -1.826977 0.246240 -0.616908 0.888351 0.080735 -0.135964 -0.489681 -0.387126 0.019741 -0.511529 -0.717425 0.400382 -0.179444 -1.324943 0.334771 0.715227 1.042291 0.131449 -0.227972 -0.549357 0.420176 0.089237 -0.346484 0.095404 -0.990964 -0.179315 0.060860 1.760372 -0.081082 -0.605048 -1.874361 0.365987 0.335241 -1.171098 -0.954966 -0.660199 -1.535786 0.165073 0.725252 -1.092866 0.005130
log -1.139711 0.934315 -0.034405 -0.041088 -1.001606 0.249421 -0.192560 1.088009 -0.422196 -0.388992 0.143527 -0.794869 -0.970208 0.272200 -0.680508 -1.655508 0.618473 -1.051022 -0.090899 -0.614575 1.078106 -0.502506 0.046479 -0.013301 1.493263 -0.274468 -0.311688 -0.116337 -1.768913 0.921260 -0.103133 -1.388425 -0.067399 -0.500232 0.643037 -1.277597 -0.452626 0.415969 0.505383 -0.411073 0.897837 0.321507 -0.430454 -0.060539 0.817462 -0.091595 0.684504 0.813807 -1.026122 -0.423620
bytes 0.231711 1.005392 -0.647613 1.743131 -0.897843 0.270399 1.400593 1.162452 -0.135411 -1.263037 -0.454619 0.200077 -1.561554 -0.089994 -0.352893 0.602789 -0.314616 -0.153946 -0.562749 0.098728 0.149535 -0.985855 -0.437279 -0.033056 -0.075563 1.966186 0.744566 -0.881864 -0.848449 0.316575 0.150329 0.460476 0.948869 -0.183582 0.812480 -0.573773 0.515842 0.893540 0.304193 -0.127009 -0.545416 -0.454944 -0.629716 0.815784 0.650646 0.278077 -0.074090 0.727729 -0.140324 1.342177
length -0.167257 0.504930 0.006187 0.760127 -0.597758 0.715248 1.420049 0.934317 0.108391 -2.071923 0.374554 -0.265635 -2.130360 1.007908 -1.039881 0.440348 -0.624442 -0.102712 -0.801659 0.645971 0.589638 -0.321278 -0.187400 0.556324 0.417645 0.654872 0.492002 -0.249145 -0.829692 1.040145 1.156260 -0.211158 0.252971 0.427693 -0.142737 1.315229 1.768949 0.154048 -0.263099 -0.539242 -0.839937 -0.275671 0.135665 0.449433 0.483742 0.271961 -0.615797 0.649664 -0.270949 -0.557821
array 1.001678 1.168578 -0.279126 1.046705 -0.942215 -0.584958 0.932312 0.730195 -0.402740 -2.600592 -0.634800 -0.154368 -0.959429 0.342677 -0.193107 0.930039 -0.928662 0.978304 -0.339279 0.022788 0.458465 -0.376234 0.088537 0.125440 0.371928 -0.082098 0.069627 -0.580335 -0.653213 0.432183 1.806271 0.280458 0.791862 1.706592 0.662035 0.285285 0.105951 -0.784143 -0.336344 -0.290955 -0.826375 0.263585 -0.381016 0.999288 -0.054909 -0.312813 -0.622380 0.761116 -0.392488 -0.056875
current -0.102325 0.305696 -1.162286 2.263921 -1.162229 0.699078 0.492004 -0.308605 0.794388 -0.790261 -0.683357 0.387934 -0.841955 -0.577078 0.076098 -0.623369 -0.088699 1.582035 -0.069645 -0.318633 0.891528 0.882527 0.513416 1.033635 -0.357089 0.064219 0.855558 0.149436 -1.059607 0.625354 0.326284 -0.366336 -0.565819 -0.321256 0.401222 0.450241 -0.497437 0.703140 -0.036170 0.236167 0.699481 -0.230364 -0.704079 0.107089 0.343630 0.258486 -1.009957 0.754643 -0.449124 -0.375859
store -0.295742 0.571329 0.587647 0.272443 -0.311086 -0.040928 0.030725 0.674662 0.020720 -1.217815 0.001505 -1.117615 -1.080068 -1.488499 -2.160961 -0.055820 0.295489 -0.518390 -0.725070 0.788790 1.059970 -1.306012 -0.593922 -0.381191 0.690011 -1.154755 -0.115990 -0.692083 -1.367816 -0.105051 -0.529291 -0.372778 -1.371999 0.322156 1.065050 -0.648892 -0.583170 0.134821 0.559226 -0.766579 0.561977 -0.951641 -0.666820 0.562878 1.313629 -0.533697 0.126797 -0.163999 -0.071020 0.822636
divide -1.419802 0.635369 0.021588 1.859916 0.109439 -0.946021 0.626398 0.562015 0.963970 -0.732175 0.209525 0.154301 -0.519449 -1.076797 -0.412934 0.079785 0.335541 0.196211 -1.258476 0.287908 0.869297 -0.401892 0.198689 0.706538 0.852694 0.352903 -0.186593 -0.424800 -1.088748 0.338797 -0.036100 0.854822 0.239262 0.173169 -0.274780 0.414982 1.103803 0.453043 0.234785 -0.252802 0.629881 -0.097361 -0.708801 -1.025346 0.405150 0.130135 -0.102923 0.719284 0.561753 -0.281993
The 0.524348 0.025905 -0.505047 1.455298 -0.458680 -0.327497 0.145060 0.613512 -0.031750 -0.683836 0.644296 0.999337 0.710432 0.168635 0.092829 0.029153 -0.532047 0.429557 0.696910 0.048552 0.067335 0.594607 0.197956 -0.601137 -0.186541 -0.181396 0.804580 -0.695360 -0.722500 0.226555 0.599527 0.360633 0.654521 0.155427 0.979473 -1.033770 -0.375136 -0.203989 -0.310954 0.054918 0.658788 -0.717336 0.456374 -0.813994 0.278159 0.390552 -1.613869 1.440346 0.048822 0.119137
x 0.882160 0.778571 -0.555240 0.705104 -0.855882 0.388484 -0.539867 1.031934 -1.215398 0.276558 -0.945136 0.324357 -1.638373 -0.574710 -0.041994 -0.533881 0.913657 -1.466296 -0.106658 -0.577283 2.273399 0.076985 -1.510516 0.351703 0.279017 -0.237736 0.758802 -0.389074 -0.830100 0.771390 0.829978 0.558494 0.762753 0.292366 -0.071559 0.194596 -0.142353 -0.140116 -0.328114 -0.114167 0.490994 0.949952 -1.445389 -0.199040 0.313963 0.067032 -0.629858 0.536720 -0.020257 -0.307355
service 0.216564 1.195764 -0.238939 1.187627 -0.775330 -0.477382 0.438877 -0.402339 -0.148164 -0.164406 -0.628302 0.475624 0.354257 0.318073 0.675474 0.453272 0.123171 -0.135840 0.195742 -0.512435 0.087479 0.074557 1.362254 0.951238 1.783419 -0.630470 -0.330507 -0.900700 -1.663497 -0.257810 -0.624788 -0.401979 -0.936975 0.093756 0.846859 0.455331 -0.185888 -0.271925 0.952890 0.285789 0.769311 0.015377 -0.961890 -1.708777 -0.582744 -1.000359 0.830731 -0.056571 -0.738176 0.446190
case 0.039215 1.237433 0.899689 1.250884 -0.841347 1.193699 0.106568 1.016908 -0.941431 -1.075423 -0.191807 -0.345120 -0.822156 0.307383 -1.521940 0.396268 -0.268053 -0.940605 0.201020 -1.046987 0.393929 0.091522 -0.500276 -0.373174 0.248300 -1.438939 -1.604830 0.462407 -1.366893 -0.167492 -0.694812 0.665691 0.194158 0.698716 -1.560207 0.794044 1.917414 0.471757 -0.031640 1.315199 -0.257586 0.123933 0.991083 -0.350273 -0.306470 -1.055664 -0.190422 0.720285 -0.052815 0.535674
put 0.343572 0.331620 0.533350 0.647078 -0.520559 0.089044 0.062170 -0.452248 0.833789 -1.581014 -0.375423 0.190675 -0.960113 0.905703 0.801222 0.266450 0.756847 -0.045481 -0.772840 0.566856 1.744128 -0.018988 -0.166627 2.013303 -0.173299 -1.284684 -0.149744 -0.427902 -1.159787 0.195446 0.212254 1.148916 -0.436934 -0.621318 1.212639 -1.055814 -0.057093 -0.092062 0.372727 -0.260051 0.189557 -0.850377 0.136879 -2.122451 0.286854 0.127591 0.726248 0.666652 -0.013056 -0.405761
count -0.695529 0.010161 -0.244530 1.085437 -0.592340 0.214639 0.355623 0.641354 0.114038 -0.240931 -0.558314 -0.851990 -0.975987 0.770028 -0.262004 0.006198 -1.568393 0.467871 -0.798464 1.109631 0.941731 0.086114 0.063187 0.808309 1.477238 -0.231852 0.723363 -0.111079 -0.112010 0.143154 0.730448 0.451866 0.235540 -0.975621 -1.107142 -0.955621 0.756057 1.320282 -0.720578 -1.701756 -0.004200 -0.595830 -1.423127 -0.850191 -0.169377 -0.580123 -0.254830 0.587598 0.537725 0.391459
1 0.076944 1.134407 0.254543 0.907688 -0.738708 0.602818 0.711915 0.744418 0.705672 -0.834277 -0.078013 0.113811 -1.405820 0.009307 0.718279 0.000775 -0.815997 0.010242 -1.297975 0.038805 0.951306 -0.022475 -0.399166 0.634989 1.171472 0.107232 -0.035380 -0.080399 -1.435540 1.278612 -0.162634 -0.277679 -0.312592 -0.671289 -0.409477 0.939635 0.986366 0.350074 -0.590792 -0.104670 -0.346313 0.147808 -0.675429 -0.692429 0.179198 0.359125 -0.382223 1.162462 0.879910 -1.184004
no 0.067642 0.644029 0.785588 1.253017 -0.726787 0.409230 0.703377 1.010815 0.116402 -0.068359 -0.029702 0.728303 0.498688 -0.459368 -0.849513 1.429954 -0.399798 0.444313 0.307787 -1.020638 1.109526 -0.157590 0.400526 -0.601725 0.873181 -0.118951 0.188767 -0.490662 -0.227262 0.131149 -0.699929 -0.900101 -0.823040 -0.703608 0.703832 0.189382 0.647778 0.197878 -0.269632 -0.143180 0.067937 0.039870 -0.386114 -1.186730 0.362660 -2.306433 -0.884047 1.303944 0.134360 -0.896410
snapshot -0.487614 0.332631 -0.152115 1.294965 -1.051882 0.483566 -0.215477 -0.725065 0.525890 -0.643390 0.837872 -1.118616 -0.350179 -1.178538 -0.975559 -0.023914 1.266103 -0.230606 -1.804931 0.315268 0.036573 0.564286 0.884480 -0.093688 0.388986 -1.210160 -0.043579 -0.150725 -1.046471 -0.753810 0.109059 -0.088523 -0.126381 -0.683020 2.180773 0.385475 0.527775 0.091487 0.727179 -0.858374 -0.187134 -0.345146 -0.448634 0.676911 -1.398958 -0.092321 -0.893675 0.035879 -0.529565 0.425057
en 0.121863 -0.302274 -0.115823 0.145686 -1.332714 -0.941569 0.681869 -0.643608 0.624637 -0.673657 0.026791 -1.174708 -1.408361 -0.707176 -0.709652 -0.265094 -0.146197 0.800124 -0.873234 -0.524981 1.604325 -0.823389 0.652832 1.530749 0.606146 0.188719 0.603607 0.275954 -0.851373 -1.076956 0.542248 0.253359 -0.021628 -0.720131 1.475617 0.753030 0.370575 -0.179189 -0.338977 -0.016189 -0.433416 -0.149674 0.040154 -0.468256 -0.706860 0.028553 -0.345902 -0.239496 -0.269357 0.234131
msg -0.005231 0.478066 -0.640427 0.843522 -2.862473 -0.198545 0.122976 1.310787 0.528929 -0.425340 0.261183 -0.987174 0.040670 0.158137 -0.100133 0.345968 0.937128 -1.003880 -0.608172 0.173107 1.169011 -1.082364 0.157266 0.818746 0.404347 0.107037 -0.303033 0.970426 -1.222544 0.627599 -1.632935 -0.145795 -0.141056 0.100363 -0.304838 -1.221006 0.292966 -0.434335 1.012661 -0.451794 -0.496919 0.304178 -0.958067 -0.780397 -0.159105 -0.721867 0.145630 0.365857 -0.904168 -0.340608
has -0.015747 0.280771 -0.997530 0.656301 -1.197094 0.197961 0.480438 -0.495830 0.945318 -0.132294 0.442447 0.127272 -1.174236 -0.692824 -0.977356 -0.230355 -0.683400 1.024722 1.450385 0.486386 0.983591 -0.643200 1.400736 0.237408 0.899523 -0.207129 0.293835 -0.100987 -0.533231 0.796900 -0.032204 0.547428 0.267856 -0.160270 0.813901 0.869740 0.476641 -0.681951 0.007471 0.256061 -0.929170 -0.361538 -0.112881 -0.799548 0.562755 -0.512847 -0.399665 1.585740 -0.497261 0.517167
number -0.796197 -0.802924 -0.629461 1.908160 -0.708619 -0.199039 -0.073517 0.658042 0.984923 -1.440382 0.141736 0.994961 0.209094 1.165652 0.221929 -0.028480 -0.486792 0.525010 -1.091341 0.764996 0.532313 0.065637 0.419712 -0.618850 0.237679 0.524455 -0.286869 0.420707 -0.698272 0.465244 0.675708 0.989117 0.733475 -0.961267 1.099680 -0.249176 0.905712 0.247273 -0.528365 0.465775 0.849085 -0.138613 -0.645538 -0.274595 -0.342370 -0.498966 -0.571096 1.906217 -0.606329 -0.064568
bydivide -1.052919 0.601013 -0.111452 1.479211 0.211683 -1.300637 0.530377 0.526607 0.793586 -1.013993 0.171315 -0.085927 -0.396164 -1.647410 -1.188682 -0.369443 0.647540 0.237887 -0.828445 0.441153 1.109936 -0.058184 0.154651 0.333491 1.210864 0.232200 -0.176984 -0.408932 -0.842782 0.267831 0.183902 0.526229 0.613212 0.333468 0.355617 0.600990 0.788034 0.157435 0.345094 -0.066492 0.648102 -0.127824 -0.427363 -1.517894 0.139537 -0.476677 0.112880 0.810820 0.808263 0.174588
nodes -0.378016 -0.318814 -0.427573 1.097052 -1.447689 0.191431 0.309448 -1.746813 -0.214369 -0.768108 -1.061974 -1.040906 -0.835197 -0.069556 -0.198865 0.841590 -0.275949 1.280039 -0.082149 -0.304659 -0.326824 -0.178450 -0.077197 0.830506 0.852770 0.124910 -1.007540 -1.201741 -0.333787 1.265939 0.017019 -0.113205 -0.300270 -0.057697 0.375362 1.201650 -0.991667 1.682066 -0.661999 -0.171754 -0.282488 -0.213459 -0.587370 -1.095588 -0.639514 -0.563500 -1.172491 1.277801 0.396483 -1.580466
are 0.539772 0.117243 -0.816613 0.377737 -0.927726 0.013826 0.024041 -0.298545 0.166611 -0.941946 0.833201 0.044621 0.289252 -0.767083 -1.617908 0.866566 -1.090521 0.170314 0.059552 -0.091326 -0.009596 -0.706095 0.811949 -0.602703 0.726399 0.084976 -0.432880 -1.245466 0.721721 -0.686477 0.589789 -0.597803 0.249271 0.356450 0.242705 -0.428688 0.649749 0.321442 -0.549935 -0.023186 0.591652 0.346741 0.180543 -0.390267 0.256871 -0.237245 -1.344378 2.137911 0.611794 -0.007648
obj 0.380921 0.281826 1.300222 0.871905 -0.106326 -1.378471 1.957588 0.545530 0.557703 -0.485249 -1.586712 0.448167 -0.628416 -0.296316 -1.083248 0.134400 -0.125360 -0.670494 -0.469522 1.090869 0.599659 -0.748678 -0.494680 -0.737120 0.862015 -0.384225 0.353841 -0.629949 -1.168548 0.968975 -0.596204 0.441418 -1.699785 0.915587 -0.796252 -0.442486 -1.125388 0.238636 0.017409 0.995019 -0.617423 0.064662 -1.488085 -0.766034 0.235478 -0.033874 1.173549 -0.639048 -0.029243 0.383818
path 0.328144 -0.340588 0.202736 1.565542 0.016878 0.118621 0.204133 0.050874 -0.046004 -1.195821 0.066140 0.529799 -1.365759 0.944788 -0.754526 -0.582366 -0.086630 -0.097950 -0.519133 0.131332 -0.662211 -0.153059 -0.690551 0.581753 0.648559 -1.047317 1.202093 -0.659453 -0.282446 0.476431 1.536762 -0.487776 -1.002494 -1.168512 1.020152 1.342862 -0.102426 -0.349450 0.281892 -0.723782 0.197792 -0.976223 0.539876 -0.080238 1.615330 0.241502 -0.524898 0.799534 0.626231 -0.617790
meta 0.281515 1.087677 0.349843 1.417208 0.588291 1.136169 0.020987 -1.048176 -0.300630 -0.857450 0.417295 -0.274896 -1.764919 0.778854 -0.791216 -0.405766 -0.177483 0.032908 -1.203548 0.876772 0.838852 0.111715 0.310850 1.680047 -0.768907 -1.812593 -0.667511 0.064304 0.279564 0.402326 0.276768 1.153234 -0.453363 -0.029255 2.065405 0.970368 -1.151656 0.376286 0.548171 -0.131882 0.190891 -0.838224 -0.834531 -0.429455 -0.327153 -1.647247 -0.500616 0.233968 -0.386648 -0.293877
stream -0.513602 0.597597 0.456416 1.456272 -1.062404 -0.431507 0.510262 0.741453 -0.417420 -1.317662 -0.952367 -0.156995 -0.386261 -0.640117 -1.457277 0.091922 0.472614 -0.189909 0.811847 -0.042364 -0.557151 0.310321 0.283728 1.286154 0.097651 -0.059410 -0.209548 -0.603381 -0.421201 -0.572186 1.294685 0.848850 0.189545 -0.104367 0.858409 -0.284745 0.823919 -0.990351 0.299791 -0.073330 -1.450193 -0.046310 -0.815085 0.416347 0.725183 -0.031135 0.689116 1.092430 0.852519 0.428993
it -0.516774 0.114042 -0.698053 -0.092877 -0.566961 0.494630 -0.621718 0.450649 0.802657 0.159409 0.609140 -0.063991 -0.303767 -0.669768 -0.961678 0.301965 -0.661593 1.438575 0.417442 0.026186 0.777003 -0.208088 0.723719 -0.952228 0.411043 -0.497708 0.657599 -1.440267 -1.437264 0.185713 -0.692905 0.707891 0.771469 -0.005995 0.706232 -0.047307 -0.877347 -0.250606 -0.073180 0.531100 -0.571394 0.021650 0.723263 -0.933373 0.618395 -1.073215 -0.034517 1.710062 0.902291 0.442723
listener 0.183917 0.357450 -1.006909 0.191288 0.200376 -0.608093 0.374301 0.448777 -0.043720 -0.303967 -0.204634 -1.398251 -0.111062 0.057707 -0.514515 -0.393726 0.958599 1.316127 0.675073 -0.350196 0.133400 0.409027 1.285126 -0.235000 1.611109 -1.400517 -0.315193 -0.955793 -1.488313 0.659341 -0.153576 0.034073 -0.584734 0.032211 -0.888906 0.757692 -0.011551 0.430686 0.532655 -1.803659 -0.325487 -0.178534 -1.451853 0.017276 -1.191206 -0.372715 -0.052951 0.172886 -0.351864 0.560005
next -0.472429 0.973555 -0.339624 0.668157 -1.481960 -0.492668 0.073838 -0.244123 0.583256 -0.314415 0.073167 0.233194 -2.165280 -0.382545 0.269808 -0.855275 -0.680608 1.083908 1.117867 0.571278 0.990869 -1.003706 1.099715 0.495997 0.402703 0.429216 0.843503 -0.264539 -1.067618 0.057912 -0.120371 0.475328 0.065465 -0.814292 -0.005874 1.241906 0.493712 -0.578091 -0.375781 0.843377 -0.576367 -0.125100 -0.606988 -0.955393 -1.048026 -0.473854 0.083265 1.126357 -0.611765 0.467130
handler -0.611205 0.097054 0.705070 -0.334050 1.012082 -0.030746 0.266135 1.090786 -0.345442 0.339978 -0.052643 -0.897125 -1.643904 0.157241 -0.771707 -0.465181 0.885012 -0.275024 0.683288 -0.201539 0.116093 1.129561 0.949486 0.358519 1.406594 -0.243026 0.283218 -1.009920 -1.594206 0.735660 0.402611 -0.075152 -0.915363 0.660935 0.518571 0.238747 0.759620 -0.005660 0.398880 -1.859966 0.560079 0.070233 -0.033945 -0.890800 0.520469 -0.469351 0.436257 -0.034411 -0.209181 0.921377
specified 0.803566 -0.141429 0.254950 0.853033 -0.819048 -0.132848 0.077016 1.602835 0.203054 -1.170778 1.530259 -0.122405 0.841795 -0.601983 -0.866192 -0.728510 0.547927 1.019634 0.289943 0.729388 -0.552642 0.189075 0.441511 0.135563 -0.136637 -0.186013 0.648311 0.036614 -0.560991 1.265206 -0.305095 -0.157469 0.941207 0.603099 1.033262 -0.240143 -0.654846 -0.164759 0.503895 0.546511 0.333809 -0.798902 1.305758 -0.260772 0.347197 -0.798895 -0.537230 0.910920 0.011792 0.107574
shards -0.656741 -0.702718 0.152479 1.036268 -0.933503 0.370836 -0.824099 -1.691443 0.348129 -0.930296 -0.546302 -0.336644 0.225868 -0.443450 0.348966 0.302124 -1.424844 0.376185 -1.910182 0.186276 0.119803 0.028841 1.026276 0.055989 1.370434 0.244348 -1.269058 -0.523707 -1.342757 0.408873 0.166844 0.906308 0.622464 -0.689115 1.562855 0.567859 1.039570 0.582116 -0.295905 -0.896530 -0.055288 -0.066762 -0.039651 -0.424611 -1.281356 -0.273553 -0.823787 0.907666 -0.314323 -0.043929
result -0.061135 0.236148 0.123490 0.414431 0.332999 0.926461 0.524885 0.685772 1.393791 -1.376461 0.051506 0.178580 0.355590 -0.729647 -0.090720 0.963331 -0.451058 0.234575 0.445204 -0.337223 1.717431 0.227771 0.267134 0.263299 -0.227197 -0.163876 0.369307 -0.222757 -1.752072 0.365713 0.811849 -0.047549 -0.251383 0.747902 -0.811292 1.292006 0.270272 0.080596 0.788822 -0.371814 -0.518973 -0.719745 -0.424531 -0.126713 -0.008777 0.407150 -0.390175 0.318302 -1.185572 0.634595
thread -1.423565 0.603195 -1.552613 1.160315 -0.405283 0.070664 0.035056 -0.181616 0.916672 -0.429983 -0.549588 -0.653148 -0.073208 0.063387 0.344218 0.100145 -0.072206 1.820588 0.324653 -1.097190 0.151567 0.556305 0.526171 0.655128 0.425716 -1.326250 0.238112 0.110702 -1.478332 -0.330440 0.976466 -0.894239 -1.107748 0.485303 -0.412768 -0.958611 0.409637 -0.125233 0.829478 -0.644299 0.307458 -0.177476 -0.131268 -0.652929 -0.542550 -0.797538 0.822246 0.205715 -0.517245 -0.708133
This -0.135359 0.093140 -1.072003 1.011344 0.556293 -1.019091 -0.008228 0.588638 0.191664 0.157335 0.032307 -0.127786 1.550848 0.525350 -1.056646 0.215412 -0.579557 0.333603 0.736824 0.266195 -0.446463 0.634393 0.257935 -0.966423 0.512391 -0.138299 0.032921 -1.105596 -1.643742 -0.483862 0.087307 -0.559290 1.001195 0.648143 0.606293 -0.662150 0.143783 0.782713 -0.501849 0.676590 0.053792 0.520911 0.738163 -0.852829 -0.057272 0.588871 -0.363774 1.363908 0.616908 -0.117601
illegal -0.184007 -0.770310 -0.310976 0.427553 -0.029996 0.504166 0.658889 0.726818 0.307785 0.104275 0.906199 0.767577 -0.981820 0.430804 0.285322 -0.008382 -0.544330 -0.219040 -0.170224 -0.820109 0.706067 0.954937 -0.475601 0.967063 1.683512 -1.476591 -0.304396 -0.324848 -1.088525 0.099262 0.006244 0.498064 0.129905 -0.086020 0.432105 0.595012 1.109989 0.240303 -0.037826 -0.842915 -0.548940 0.575632 -0.381316 0.895024 0.923508 -0.970597 -0.880310 1.615179 -0.614562 0.258621
packet 1.250730 0.481173 0.250441 0.731909 -1.333871 0.894921 0.553824 0.619495 -1.458702 0.161294 -0.268766 -0.575012 -0.470783 -0.009783 -1.259653 -0.403692 0.853251 -0.317418 -0.026464 -0.402773 0.341939 0.419951 0.697329 0.792273 0.562616 1.668187 0.204051 0.109619 -1.798676 1.208669 -0.729918 0.661386 -0.074930 0.180734 1.167366 -0.841890 1.008733 0.048710 -0.094277 0.098561 -1.559092 1.413864 -0.070994 -1.057097 -0.455439 0.071061 0.134986 -0.133584 0.459935 0.108863
allocation 0.286076 -0.219231 1.235166 1.078605 -0.303077 1.171602 -0.078823 -0.736461 -0.079062 -1.430705 -1.292378 -0.192062 0.017096 -1.905086 0.775576 1.503283 -0.562085 -0.367871 -0.031915 -0.396444 0.588589 0.092982 0.748718 1.170631 0.627306 0.201073 -0.259679 0.428823 -1.249112 0.356660 -0.386209 -0.270907 -0.003606 -0.441919 0.464110 0.655299 -1.409068 1.325482 -0.269389 0.337729 0.272121 -0.404786 0.372825 -0.104185 0.232448 -1.628622 -0.400254 0.614082 0.262191 -0.260856
io -0.685135 0.364041 0.470789 1.647155 0.289944 -0.275918 -0.055594 0.509801 -0.126684 -0.260722 -0.829427 -0.119935 -1.558593 -1.108245 -0.611958 -0.753560 0.624715 -0.316812 0.875804 -1.103004 0.562675 -0.248698 -0.276595 0.569613 1.221648 -0.460140 0.142481 0.763778 -0.563929 -0.080592 1.788961 -0.255625 0.218684 -0.164242 0.830127 -0.504522 0.491789 -0.229729 0.711877 -0.491724 -0.675053 0.050374 -1.432788 0.045961 0.098780 -0.621133 -0.526630 0.817193 0.123882 0.767228
greater -0.918709 -0.008480 -0.091042 -0.153832 -0.710393 1.048638 2.184906 0.448238 0.550395 -1.321137 0.167021 0.117130 -1.351330 0.306058 -0.163544 -0.160188 -1.127214 0.806466 -0.903395 -0.774886 0.881639 0.566600 -0.920170 0.656931 0.976838 0.034709 0.224201 0.236537 -0.877531 1.041418 0.130981 0.762420 -0.331027 -0.250050 0.096157 -0.006353 0.757620 0.899532 -0.467300 -0.220087 -0.278772 0.162530 -0.616861 0.194824 -0.385169 0.347019 -0.574676 1.036442 0.235433 -0.008882
values 0.898465 0.762493 0.464700 1.007800 0.382234 -0.914182 0.043996 0.543806 -0.102009 -1.593183 0.882446 0.006576 -0.975395 -0.126574 0.339251 0.202525 -1.369284 0.387624 0.553058 0.087382 1.201053 -1.190036 -0.045839 0.526199 1.200356 0.161114 -0.518043 -0.459348 0.635580 -0.376828 0.495051 -0.118707 0.407427 -0.426768 0.188455 0.163908 0.344960 0.042226 -0.907277 0.069912 -0.592710 -0.974791 0.133999 -0.619853 -0.175616 -1.076716 -0.524882 1.710295 -0.119186 1.069359
out -0.598398 1.400758 1.144278 1.900985 -0.112625 0.184426 0.131003 1.258819 0.161178 -1.127905 -1.070255 0.295108 -0.134198 0.391759 -1.990745 1.080751 0.674636 0.285002 0.037306 -0.373229 0.139278 0.005238 0.188041 1.202654 0.947641 0.672632 -0.071139 0.530571 -0.131021 0.302078 0.428744 -0.164531 1.160861 -0.645538 -0.269367 -0.908653 0.072635 -0.437994 -0.071644 0.176119 -0.453229 0.087620 -1.179638 0.104761 0.114510 1.338329 0.454265 0.660785 0.882963 0.688001
client 0.081876 0.266800 0.214730 0.864588 -0.923289 0.730732 0.313740 0.271381 0.440603 0.628020 0.038726 -0.489344 0.374574 -0.113401 -0.242214 -0.261822 0.766724 -0.104352 0.521243 -0.489658 -0.162278 0.822529 -1.282950 1.046250 0.225733 -1.172069 0.212737 -1.777006 -1.102616 1.286390 0.078307 -0.974050 -0.053695 0.732676 0.921270 0.322329 -0.162647 0.336704 0.059989 -0.796214 0.208617 0.747015 -1.499939 -1.610053 -0.535406 0.074221 -0.069425 0.712078 -0.341253 0.011691
ex 0.299995 -0.171746 0.869888 0.743716 -0.908831 -0.873501 -0.678514 0.495747 0.612943 0.159028 -0.078361 0.167650 -1.148431 0.290330 0.161487 -0.590541 1.002552 -1.132544 -0.662497 -0.768745 -0.186059 -0.162748 0.260273 0.487689 1.792989 -0.921349 -0.513263 0.938567 -1.714725 0.821398 -0.280894 -0.674481 -0.009513 -0.314667 0.012051 -0.973879 0.068679 -0.135669 1.080954 -0.254541 -0.083859 0.315137 -1.843066 0.618358 0.322183 -0.608430 -0.068863 0.470000 -0.082648 -0.190161
header 0.621004 -0.479255 -0.172175 0.198570 -0.266053 0.009074 1.808276 0.813020 -0.522006 -1.511494 0.927119 -1.101280 -0.246789 0.423598 0.163983 0.092945 0.847300 0.322332 0.033920 -0.226454 0.243372 0.022601 1.114804 1.254105 0.236947 -0.040973 -0.380705 -0.620277 -0.682243 1.003059 0.935921 -0.014180 0.796386 -0.574636 -0.202073 1.125576 0.195688 -0.592725 0.502712 0.186221 -0.415967 0.792350 1.040410 -1.414501 1.093662 -0.434609 0.152871 0.467814 -1.150154 0.464129
new 0.269435 1.130536 -0.007490 2.195333 -0.275823 0.291208 -1.484758 0.230709 -0.341909 -0.671546 0.097655 -0.339468 0.725739 0.261653 -0.089226 -0.850357 -0.122256 1.029167 -0.261373 -0.104246 -0.072982 0.723162 0.389918 -0.342122 0.114764 -0.892849 -0.201591 -0.613679 -0.988330 1.209715 -0.393655 -0.661326 -0.005267 0.768183 0.950213 -0.439772 -0.995581 0.453456 -0.573560 -0.630503 -0.703525 -0.653627 0.484941 -0.106212 0.402169 -0.492754 0.724881 0.247065 0.165166 -0.439015
m 0.212566 1.424312 0.262716 1.350608 -0.173258 0.541554 0.381934 0.523537 1.157099 -1.181234 -0.365793 -0.844626 -1.615874 0.255831 0.295214 0.186437 0.692617 -1.704488 0.425668 0.680759 -0.059514 -0.402788 -0.095534 1.366002 0.142874 -0.045963 -0.315742 -0.024018 -0.559881 0.109765 -0.309196 -0.634522 0.380991 -0.313256 0.260980 1.120356 0.182521 1.017875 -1.242844 -0.009559 -0.796381 0.451888 -0.409702 -0.241786 -1.103488 -0.764881 0.790176 1.935513 -0.818103 -1.025702
http 0.135172 -0.482314 0.286209 0.131272 0.015158 0.290946 1.221597 1.160090 -0.719150 0.503589 -0.432634 -1.441879 -0.553059 -0.513885 -0.094321 -1.210579 1.188110 -0.160670 0.998067 -1.760396 0.579310 0.530045 0.689922 0.320843 0.377285 -0.126927 0.219629 -1.391218 -1.425781 0.697685 0.688022 0.535505 -0.720186 -0.306435 0.127422 1.312944 0.466787 -0.557237 -0.237802 -1.400079 -0.737619 0.257211 0.546833 -2.115446 0.701302 0.654396 -0.462885 -0.142547 -0.257538 -0.591187
event 0.841547 0.231021 -0.518635 0.510021 0.700471 -0.486443 0.163097 0.350271 0.026805 0.691394 -0.707613 -0.977410 -0.921515 -0.211613 -1.128313 -1.115447 0.119075 0.942653 0.802070 -0.729282 1.204384 -0.417203 0.852948 0.450276 0.167826 -1.554936 -1.532230 0.810475 -0.297132 2.050084 0.148116 -0.028627 -0.123535 1.131823 -0.395602 0.490114 -0.522032 0.234142 0.769124 -0.472116 -0.139724 -0.539870 -0.618838 -0.942022 -0.929165 -0.826003 0.018780 0.115433 -0.775035 -0.092799
property 1.020895 -0.581124 -0.271031 1.093430 0.105158 -1.528296 0.765470 0.682770 0.343592 -0.315709 0.859737 0.295326 -0.116685 -0.027960 -1.484028 0.218680 0.463200 0.467524 0.373979 1.047085 0.020544 -0.942934 -0.246821 1.291700 0.412356 -0.559776 0.674720 0.129934 -0.608011 0.861594 0.036448 -0.608921 -0.607851 -0.245646 0.877723 -1.135137 0.085277 -0.650033 -0.192416 0.679244 0.627924 1.083430 -0.588802 -1.618897 0.582916 0.022037 0.609505 0.671586 -0.869403 -0.683651
indices 0.597490 1.137547 1.037121 1.239810 0.424848 -0.213503 0.696444 -0.702565 0.799575 -0.585985 0.640507 -0.008971 0.562505 0.411083 -0.774038 1.587354 -0.627345 -0.410106 -1.345311 -0.202500 0.381001 -0.180887 0.956603 0.648233 0.529087 -1.137176 -0.749554 -0.875266 0.678082 0.785703 0.311540 -0.133131 -0.192232 0.738949 1.701906 0.914647 -0.517866 0.542764 1.164325 -0.932885 -0.147492 0.686794 -0.648992 -0.719371 -0.587900 0.190600 -0.509191 1.240259 -0.022100 -0.002816
byte 0.118786 1.491657 0.275036 1.060242 -0.987791 0.360093 2.274929 0.845115 -0.573213 -1.727116 -0.706562 0.236378 -0.861436 -0.145706 0.325200 0.161022 -0.572774 0.985884 -0.112705 -0.220033 0.115895 -0.026767 -1.270549 0.779207 -0.559589 -0.217669 -0.039078 0.424022 -0.995965 1.416091 0.614156 0.769309 1.256623 0.784614 0.275979 -0.743653 0.649114 -0.327493 0.291126 0.914683 -0.595289 0.544644 -0.405966 0.741184 0.643650 -0.995874 0.812532 -0.044765 0.540073 0.766879
filter 0.095399 0.457797 0.253381 0.955407 -0.933757 0.973433 -0.185391 -0.888387 0.173557 0.350849 -0.144978 -0.175437 0.189096 -0.062695 -0.650856 -1.218806 0.387194 0.269412 1.065599 -0.479517 1.177866 0.300230 -0.069087 1.328936 0.686314 -1.237304 -0.642072 -1.045441 -0.244906 0.184425 1.579646 0.369550 -0.793554 0.430820 -0.174298 1.054941 0.494521 -0.395683 -0.969480 -0.602858 -0.824065 0.912121 -0.104209 -0.495119 0.786251 0.535804 0.755110 0.754800 0.181152 0.147629
used 0.772390 0.098638 -1.776137 1.577280 -0.410930 -0.292780 0.210500 0.742163 0.304918 -0.527496 -0.414754 0.511895 0.343585 0.271221 -0.792440 0.664346 -0.663382 0.813105 -0.112665 0.240277 0.385982 -0.395024 -0.935698 -1.199853 0.211577 0.709843 1.013698 -0.906505 -0.868392 0.346805 -0.530177 -0.156750 0.668585 0.139714 0.330210 -0.622111 -0.277825 1.007945 -0.101637 -0.889735 0.159575 0.367003 0.300864 -0.787339 1.024698 0.883892 -0.328629 1.090604 0.555465 0.836699
session -0.562675 -0.333366 0.423023 0.493021 -0.590186 -0.988299 0.058012 0.846340 -0.080563 -0.288283 -0.485378 0.117517 -0.346517 -1.107785 -0.231670 -1.113988 0.189862 0.548895 1.660441 -1.057753 0.794395 -0.502648 0.222894 0.129605 -0.354239 -0.373418 0.727831 -0.499776 -1.195857 -0.381498 -0.889440 1.242544 -1.012988 0.208392 -0.904891 -0.335236 -0.588319 1.195997 0.549657 -1.960606 -0.184765 -0.479124 -0.211861 -0.321130 0.166885 -0.426091 0.389940 0.490830 -1.173198 -0.288808
static -0.572894 0.369120 0.057063 1.665712 -0.533784 -0.123658 0.537906 0.830289 -0.512769 0.038312 -0.417405 -0.188596 -0.491670 -0.641284 -0.565758 0.310756 0.324315 -0.610307 -0.125523 0.474135 0.233153 0.350004 -1.083796 0.330436 0.585086 0.127551 0.674205 -0.759324 -0.560718 -0.098317 1.559485 -0.165939 0.378764 0.239648 0.703367 1.359926 0.095535 -0.124870 -0.341878 -0.030923 -0.319578 -0.007585 0.893525 -0.594658 -0.672295 -0.251351 0.444533 0.791492 -0.737792 0.490836
read -1.263725 -0.379917 0.491158 0.842654 -0.278775 0.399771 1.202923 0.911309 -0.360737 -0.383091 -0.611077 0.151842 -1.108003 -1.088537 -1.852218 0.149601 0.302430 0.378835 0.505735 -0.080464 -0.161681 0.161351 0.195164 0.622263 0.155440 0.252699 0.241692 -0.014658 -1.312898 -0.020955 0.816074 0.341721 1.039982 0.403526 0.727087 -1.284372 0.813193 -0.044066 -0.297742 -0.380291 -0.685056 0.975117 -0.715409 -0.341543 -0.164459 -0.048033 0.056298 0.518503 -0.237302 0.992669
should 0.140577 -0.405364 -0.857086 1.206107 -0.308344 -0.061922 -0.195750 -0.728893 1.591517 0.450391 0.295653 0.071686 -0.536113 0.143738 -0.854456 0.557394 -0.337781 0.390956 -0.333107 -0.079429 -0.050925 0.166801 0.617789 -1.201452 0.579745 -0.538591 -0.272230 -0.727564 -1.022154 0.786156 0.372068 -0.364719 -0.085970 0.678411 0.060019 -0.367971 0.264901 1.321888 0.243148 -0.279280 -0.598202 0.406523 -0.032922 -0.546301 0.596475 -0.039051 -0.681108 1.710889 1.064136 0.656838
write -0.507057 0.872850 1.114890 0.620087 0.362602 0.719459 0.816256 0.631591 -0.098410 -0.955087 -0.660340 -0.023120 -0.857759 0.114811 -1.523340 0.281867 0.324270 0.983868 0.654582 -0.275202 0.706571 0.745988 0.239307 0.877662 0.294180 0.317629 0.859899 0.128433 -1.133076 0.110957 1.297192 0.281837 0.732041 -0.438555 0.576685 -1.017340 -0.028349 -0.684695 0.222143 -0.648024 -1.000778 0.215249 -0.585185 0.252429 -0.681994 -0.177747 0.067986 0.517566 0.675202 1.669642
create 0.188479 0.822733 -0.310300 1.780365 0.106318 0.411535 -0.320078 0.368925 -0.175756 -0.492158 -0.191698 -0.672618 -0.040543 -0.271783 -0.066296 0.005733 0.315312 -0.971806 0.440348 -0.508051 0.807518 0.003421 -1.002307 -0.379258 0.226810 -1.060913 0.618910 -0.543215 -2.082596 0.064392 -0.456431 1.449359 0.248568 1.296100 0.691140 0.539932 -0.241572 0.242809 0.401500 -1.072665 -1.003621 0.292973 -0.012696 -0.713259 0.131132 -0.601936 0.624967 0.247310 -0.947629 0.409924
start -0.361674 1.316845 -0.261493 1.373266 -0.956005 0.753480 0.415387 0.300450 1.062286 -0.217974 -0.891093 0.320460 -0.955903 0.738763 0.018778 -1.449513 0.124695 0.372450 -0.492725 -1.093417 0.576896 0.559400 -0.090730 0.000476 0.161277 0.119193 0.221419 -0.183882 -1.930604 0.480563 0.804267 -0.135381 0.094076 0.550479 -1.003844 0.261738 0.799379 0.314800 0.155162 -0.094097 0.559075 -0.559918 -0.644359 0.034326 -0.985350 0.512242 -0.608248 0.070383 -0.030236 -0.632491
class 0.184214 -0.002074 -0.762932 0.949833 0.265697 -0.136353 -0.318397 1.137214 -0.026052 0.762351 0.322740 0.323396 -0.546443 0.764237 -0.525516 -0.151795 -0.294823 -0.483958 -0.535957 0.878182 1.227928 1.034901 -0.011313 0.168184 1.923015 -0.369067 1.027654 -0.542071 -1.749296 -0.918431 0.524851 -1.422376 -1.540353 0.846308 0.202356 -1.096632 0.072645 0.841519 0.074584 0.354874 -0.299631 -0.042857 0.177794 -0.081932 0.250930 0.953695 0.708725 0.621182 -0.212472 -0.409892
given 0.568564 -0.244356 -0.304017 1.645664 -0.732900 -0.115404 -0.285284 1.110770 -0.300783 -1.341746 -0.413551 0.173800 1.263555 -0.405982 -0.172173 -0.694520 -0.433022 1.432731 -0.532287 0.782769 -0.759981 0.486841 0.676315 -0.549192 -0.205517 -0.841834 0.076790 -0.940364 -0.894406 -0.592002 0.837291 -0.122608 0.289011 0.349786 0.642833 0.179005 -0.599962 0.154941 0.001045 0.795708 0.064161 -0.727242 0.353932 0.002959 0.172765 0.245949 -0.521513 0.772737 0.361182 -0.317051
hash 0.857102 0.686598 1.283138 -0.112485 -1.446104 -0.210654 0.784754 0.360094 1.042353 -0.738629 1.199563 -0.301096 -1.072129 -0.285921 0.802863 0.206566 0.346355 0.225592 -0.312348 0.996946 1.388837 -0.652928 -0.336319 1.022283 0.871790 0.000438 -0.438567 -0.198960 -0.918822 0.632804 1.149535 0.058965 -0.372995 0.116819 0.992022 -1.003457 0.332780 0.618080 0.260763 0.357799 -0.755353 -1.173880 -0.281334 -0.402136 -0.937545 0.460943 -0.281437 0.627440 0.311134 -0.310919
append -1.023875 -1.192153 0.936895 0.053895 -1.310338 0.493145 0.167691 0.290343 0.327444 -0.468935 0.180874 0.000230 -0.878992 1.544524 -0.552396 -0.117418 -0.616059 -0.190560 -0.569913 0.606559 1.589328 0.580499 -0.451962 2.295145 -0.481880 -0.043846 0.676910 0.428685 -1.353668 -0.280539 -0.959691 -0.672024 0.836638 -0.834461 -0.971887 1.215865 0.913236 0.281324 0.546125 0.194605 -0.155380 -0.026336 0.518716 0.019964 0.620685 0.231038 -0.183098 -0.225329 -0.545878 0.688241
address -0.208262 -0.622455 1.189616 0.008772 -0.585709 -1.801083 0.661527 0.129406 -0.838972 -1.426782 -0.983957 0.779230 -1.003705 -0.413434 0.035044 0.064290 -0.347901 -0.183117 0.385899 -0.264734 -1.075996 -0.172639 -0.752700 0.021759 0.241980 -0.247482 -0.211620 -0.976148 -2.699429 -0.295759 -0.532243 -0.470815 0.415099 0.163001 -0.206785 1.268350 0.011178 0.675128 -0.188680 -0.774081 0.585068 -0.138866 0.939717 0.184828 0.056807 -0.623358 0.596559 -0.047744 -0.916191 -0.287025
c -0.394889 -0.034848 0.584583 0.488261 -0.386988 0.783178 -0.247171 0.735450 -0.989726 -0.151822 0.137472 -0.002662 -1.690772 0.384909 -0.108028 0.007182 -0.721767 0.369148 0.306842 1.372916 1.773307 0.567505 -0.463232 1.036957 1.098715 -0.249686 0.408003 -0.013319 -0.651427 0.189456 0.199074 1.552425 -0.759381 -0.161864 -0.919167 -0.181777 0.406617 0.490409 -0.846994 -0.208033 -0.925371 -1.138649 -0.744070 -0.151181 0.020044 -0.201873 -0.267913 0.255338 0.227076 1.093685
integer 0.100905 -0.304458 0.471220 0.538374 -0.944465 -0.036728 1.127403 0.662421 0.277446 -1.269307 -0.962521 0.379948 -0.022104 0.400969 -0.163335 -0.767908 -0.364885 0.033342 -0.780982 0.706051 0.341646 -0.587337 -0.100445 0.476656 0.596917 0.085161 -0.656000 0.541350 -1.600087 0.962507 0.576433 0.554321 0.450009 -0.886437 0.267313 -0.504086 0.886755 -0.491240 -0.177924 -0.366894 -0.049580 0.732506 0.183796 -0.819297 -1.073812 -0.854340 0.635166 1.003504 -1.175227 0.311504
pool -0.911232 0.760591 -1.068129 0.672500 0.453093 0.009929 1.356643 -0.669535 0.403093 -1.484902 -0.229478 -0.768654 0.410991 -0.537451 0.198345 -0.859202 -0.658900 1.565089 0.122977 -1.785872 -0.121718 0.012903 -0.362377 0.538739 0.568644 -0.944333 -0.083903 0.021005 -1.492659 -0.109895 0.425163 -0.748204 -0.532527 0.590147 0.525687 -0.842947 0.689184 -0.847491 0.271828 -0.466874 -0.191029 -0.131260 -0.034834 -1.298119 -0.280314 -1.036782 1.187930 -0.496701 -0.247645 -0.183350
action -0.311363 -0.111684 -0.488659 1.310655 -0.853697 -0.865704 -0.274282 -0.449911 0.338722 0.689895 -0.546536 -0.409566 0.152071 -0.358690 -0.684567 -0.215698 0.199413 1.039195 -0.199892 -0.462170 0.405889 0.532286 0.773366 1.218795 0.947286 -0.543786 -0.544325 -0.374851 -0.540377 2.078822 -0.161837 0.203786 -0.770657 0.609409 -0.245147 1.462122 0.120160 -0.491751 1.714774 -0.103241 -0.822080 -0.039166 -0.718623 -0.263228 -1.440142 0.826880 0.193751 -0.015663 0.415597 1.828446
props 0.150466 0.224726 0.688245 0.701396 -0.680685 -1.050936 1.215344 -0.424483 0.485321 -0.263070 -0.074368 0.231302 -0.798047 0.454244 -0.352573 0.707053 0.993679 -0.245296 -0.640537 1.167406 0.616201 -0.574727 0.034634 0.816138 1.406470 -0.355183 -0.158171 0.741646 -1.080432 0.745168 -0.262674 -0.301655 -0.130671 0.614448 0.552205 -1.849411 0.117522 -0.254813 0.113670 0.557571 0.001828 1.018217 -0.096717 -1.654425 0.448985 -0.714052 1.073298 0.038494 -0.527718 0.481284
timeout -1.263719 -0.168883 0.396860 0.160370 0.421731 -0.695070 0.692151 0.185625 0.898516 0.016665 0.367349 0.809334 -0.394945 -0.325307 0.172443 -0.894821 0.386412 1.642585 0.401755 -1.768791 0.909277 1.241659 -0.356680 0.280305 0.448146 0.476219 0.595745 -0.381582 -1.370599 0.694829 -0.321906 -0.434514 0.395258 -0.173095 -0.503725 -0.799222 -0.129223 0.963440 -0.711653 -1.240544 1.107100 0.646889 0.249590 -1.079952 -1.996538 -0.687234 -0.192330 0.542029 -0.151145 0.813954
code 0.913923 0.326987 1.482733 0.408083 -0.968173 -0.148442 0.270723 1.714964 0.453835 0.866523 0.625312 0.275261 0.517345 -0.953276 0.311845 0.703339 0.621420 -0.431695 0.263533 0.543022 1.722630 0.238935 -0.027940 0.190858 0.847194 -0.063526 -0.510039 -0.031390 -1.465041 1.492265 0.655738 -0.266005 0.969513 0.737450 -0.253010 -0.339399 0.673712 0.904451 0.674256 0.409989 -0.672401 -1.055225 0.070113 -0.301136 0.220208 0.119226 -0.623106 0.289390 -0.806760 -0.724357
can 0.051146 0.205732 -0.149948 0.595094 0.220639 1.039756 0.749551 0.172958 0.861431 -0.522015 -0.392440 0.286729 0.098456 -0.245701 -0.635211 1.313943 -0.737667 0.554991 -0.164906 -0.166363 0.276772 0.318790 0.279885 -0.600850 0.507030 0.004516 -0.207208 -1.124602 -1.555619 -0.350379 -0.256525 -0.489928 1.048633 0.565116 0.935162 -0.511282 -0.850530 0.749900 -0.211148 -0.188277 -0.556759 0.646481 1.213824 -0.720262 0.759224 -0.821282 0.163387 1.060921 0.448184 0.979463
t -0.148962 -0.038697 -0.088184 0.440348 -0.984490 -0.412249 -0.307866 1.547859 0.405294 -0.063414 -0.133851 -0.760304 -0.943807 -0.000333 0.593527 0.051936 0.735545 0.141826 -1.125904 -0.609909 0.851773 -0.626796 0.885254 1.161926 0.770107 0.161680 -1.588081 -0.635833 -1.452349 -0.372021 1.064893 0.035346 0.024648 0.112496 -0.231015 -0.054538 0.559400 0.581869 -0.083210 0.132021 0.432956 -0.115404 -0.055436 0.823574 -0.237462 -0.758043 1.275141 0.068495 -1.030611 0.063023
local -0.264744 0.527687 0.546753 0.266567 -0.906466 -0.231507 0.572723 -0.475668 -0.701809 -1.674055 -0.409844 -0.016419 -0.835085 -0.659517 0.051086 0.339013 0.128828 0.984041 0.323369 -0.419151 -0.110444 0.318365 0.591580 -0.512487 0.391681 -0.144667 0.016133 -0.669744 -1.604198 0.236152 0.801712 -0.466336 -0.935645 -0.463419 0.432833 0.609191 0.922943 0.807236 0.441931 -0.921013 0.842692 -0.794481 0.513624 -0.414070 -0.160926 -1.011322 -0.331733 0.268618 -0.799415 -0.691734
globals 0.487591 1.155039 1.232665 0.810412 0.462040 -0.902543 0.355747 0.412064 -0.363463 -1.029818 -0.601593 -0.291497 -0.169402 0.311908 -1.707024 0.181132 0.284859 -0.983632 0.359370 -0.539543 0.611223 0.193853 -0.305643 1.088639 1.384073 -0.564551 -0.723886 0.424978 -0.921039 0.781053 -1.244270 -1.613741 -0.781564 -0.377544 -0.879712 -0.601745 -0.682448 -0.570972 0.089317 0.506533 0.447295 -0.707614 -0.217323 -1.170302 0.498629 0.650420 0.804476 -0.106600 -0.064044 -0.331433
when -0.532569 0.179372 -1.172200 1.131784 -0.026601 -0.107561 -0.437646 0.619581 0.115363 0.222229 0.779558 0.399646 0.662845 -0.115452 -1.393617 -0.364403 -1.032225 0.741975 -0.032527 -1.171934 -0.032279 0.342906 0.339220 -1.044792 0.385054 0.252536 0.185682 -0.772208 -0.353222 0.552823 -0.490247 -0.159547 1.233030 0.538450 0.530877 0.166447 -0.075083 0.718996 0.164941 -0.961333 0.064437 0.558607 -0.765430 -0.974715 0.397242 -0.703895 -0.664649 1.520039 0.596493 0.020134
thangreater 0.849697 0.450131 0.196743 -0.302425 -0.714808 -0.540598 1.449855 0.226696 0.378083 -1.720551 0.117596 -1.548698 -1.335786 -0.353065 0.939715 0.590204 -0.124344 1.071824 -0.753170 -0.270213 0.887622 0.594655 -0.722455 1.353295 1.006554 -0.584710 -0.036181 -0.380303 -0.523006 0.206009 1.287375 1.091791 -0.785052 0.375629 1.668816 1.018613 0.310149 -0.442527 0.052733 0.342527 -0.697049 -0.540371 -0.180935 0.680644 -1.775904 0.289688 -0.229752 0.369545 0.741033 0.253679
debug -0.510102 0.406182 0.391371 0.335808 -0.628221 -0.165252 -0.080216 0.534590 -0.101413 -0.374877 0.855552 0.476098 -0.355213 1.111332 -1.458868 -0.133355 0.829817 -0.413276 -0.515076 -0.512095 0.321534 0.167970 0.829871 1.371688 1.776651 0.306578 -0.385691 0.796807 -1.193813 0.594502 -0.777617 -0.462721 -0.422076 -0.498805 1.066013 -1.469018 -0.547782 1.066169 1.261318 -0.825761 -0.787744 -0.468502 -0.225373 -0.502037 -0.219904 0.475220 1.869733 0.873050 -0.096293 -0.967523
failed -0.329306 0.161913 0.601104 0.505599 -0.269916 -0.390058 -0.747693 -0.875173 0.066061 -0.772114 -0.600889 -0.532039 -0.447489 -0.795928 -0.414609 0.439006 0.568108 -0.506183 -0.768083 -0.666304 1.271832 0.257842 -0.163230 -0.891110 1.986414 -0.533705 0.383596 0.378316 -1.594667 1.114729 -0.134286 -0.302870 0.895398 -1.269443 0.294004 -0.021079 -0.570929 0.152709 0.835710 -0.597276 0.709560 0.289915 -1.353869 0.314203 0.600382 -0.835124 -0.933515 0.489665 0.095374 -0.225226
remove 0.195982 0.102073 0.242061 -0.001619 0.049138 -0.089656 -0.419953 -0.343764 0.360086 -1.032466 -0.088944 -1.153692 -1.059047 -0.380598 -0.769276 -0.772711 0.006610 0.168975 -0.040041 0.401372 0.842428 -0.976473 0.719606 0.437299 0.926149 -0.801234 0.288891 -0.511740 -1.120669 -0.016753 0.341927 0.898766 -0.067608 -0.160693 0.483608 0.798329 -0.442592 0.247755 0.102042 -1.186003 0.089139 -0.024759 -0.808696 -0.767285 0.017300 -0.854654 0.187192 0.472849 -0.386413 -0.114281
search 1.309585 0.025434 -0.236472 1.380338 0.277360 0.388185 0.030783 -0.979963 0.945843 -0.512036 0.210893 0.411831 1.604975 0.082786 0.368818 0.567427 0.327718 0.011178 0.856421 -0.174536 0.413599 1.312155 0.601685 -0.048069 0.801657 0.316500 0.025783 -0.391645 -0.939542 0.569987 1.125937 0.242838 0.140899 -0.426687 0.489403 0.226755 0.912804 -0.372950 0.403455 -1.476182 -0.562072 -0.351824 0.413272 -0.584956 -1.141125 0.971629 -0.620569 0.581563 -0.390693 1.521670
task -0.787061 -0.512370 -0.775692 0.054835 -0.302769 -0.419802 0.164682 0.301149 0.627920 -0.456808 0.219763 -0.510934 0.227665 -0.441935 0.154872 0.986881 -0.201552 0.975698 0.170187 -0.223874 0.663002 1.140084 1.531928 0.639613 0.188666 -0.006360 0.031606 -0.429558 -1.283209 0.322498 -0.742454 -1.115599 -0.531640 -0.435846 0.203488 0.110661 -0.705936 0.103932 1.320581 -0.603609 -0.321368 -1.653779 0.026457 -0.107864 -1.109461 -0.841760 0.478909 -0.098058 -0.527336 1.457531
input -1.484434 0.669136 0.415653 1.493221 -1.191107 -0.111208 1.469723 1.466735 -1.341189 -0.886747 -0.236024 0.416961 -1.047932 -0.573287 -1.352336 0.191865 0.124810 -0.353021 0.054219 -1.330417 -0.288345 0.497212 0.175472 0.186577 -0.516717 -0.732189 0.160821 -0.286176 0.470573 -0.276850 0.786735 0.036572 0.513846 0.617556 0.810348 -0.080760 0.959445 -1.697909 -0.313470 0.131929 -0.886183 0.122079 -0.056946 -0.534242 0.822142 -1.195271 0.170727 -0.022763 0.199396 -0.076930
empty 0.653111 -0.028020 -0.390916 1.060873 -0.112562 -0.034616 0.029614 -0.595170 -0.047774 -0.995164 0.257321 0.168332 -0.683193 -0.428075 0.151328 0.906293 -0.395033 -0.152513 -0.131239 -1.112346 0.466964 0.411720 0.774645 1.368934 0.873809 -0.535584 0.172465 -0.645623 -1.040926 0.121765 0.894254 0.608367 0.402755 1.126210 0.625342 0.116140 -0.176021 -0.194885 -0.695571 -0.547875 -0.374667 0.253334 -0.141555 -0.059899 0.027732 -0.573989 -1.144527 0.608250 -0.187806 -1.152177
update 0.840736 0.086312 -0.461309 1.326409 -0.051485 0.376062 -0.560063 -0.070870 -0.787045 -1.099296 -0.607964 0.053707 -0.293932 0.233541 -0.692638 0.927772 0.182597 -0.258665 -0.325206 -0.311153 1.236590 0.489553 0.145923 -0.113612 0.543662 -0.384602 -0.137704 0.097389 -1.081770 0.273515 -0.358158 0.493926 -1.058633 0.336625 0.019646 -0.384256 -0.063089 0.391774 0.967768 0.068384 1.061919 -0.662959 -1.198219 -1.530354 -0.823992 -0.921599 -0.493021 0.189116 -0.049557 0.978147
If 0.535549 0.270774 -0.142370 -0.532429 -0.882519 -0.048390 0.619975 0.241628 0.845661 -0.434570 0.690062 0.086798 1.454873 -0.519632 -0.477135 -0.221632 -1.084062 0.945423 0.785846 0.117063 0.759573 0.980586 0.787612 0.185559 -0.668687 -1.197401 0.759637 -0.621821 -0.693337 0.271074 -0.475406 -0.841427 0.088067 -0.211177 1.000005 -1.205716 -0.204219 -0.461697 0.046694 0.847547 -0.057775 -0.138399 0.418996 -0.516602 0.435947 0.188876 -0.938042 1.800406 0.838278 -1.046282
instance 0.769230 -0.012695 -0.185822 1.523605 -0.510163 -0.503372 -0.783259 0.521596 -0.608478 -0.349745 -0.375773 -0.895519 -0.177063 0.346750 -0.821186 0.193243 -0.637236 0.199341 0.059559 -0.249073 0.163593 0.501349 0.666511 0.410110 0.842731 -0.511299 -0.048443 -1.005654 -1.877542 0.002426 -0.319615 -0.822496 -0.370827 0.910929 0.344845 0.157688 0.433456 0.098674 -0.821226 0.388675 -0.238271 -1.130546 0.220190 0.291658 0.874156 -0.353812 0.738667 -0.473135 -0.182005 -0.408637
instanceof 1.205405 -0.654816 0.230788 1.853109 -0.039284 -1.950020 1.134778 0.954843 0.297900 -0.258659 -0.158567 0.195023 -0.982801 0.201558 0.410391 -0.924278 0.093857 -0.873179 0.038370 -0.716412 0.787161 0.327128 0.135811 -0.287110 1.012240 0.234783 0.174468 -0.448361 -1.324489 0.544135 0.157619 0.276464 -1.006817 -0.227918 0.193679 0.202744 -0.883042 -0.229660 0.244213 0.148846 -1.290984 -0.215403 -1.472140 0.607957 0.661244 -0.866928 0.698571 0.558155 -0.764178 0.631805
table -0.081078 -0.292878 0.272923 1.568103 -1.537427 -0.792595 0.124781 -1.056563 0.436027 -0.794558 -0.245480 -1.023624 -0.498794 0.439743 -0.076377 -0.696709 -0.352949 -0.060390 -0.960373 0.471024 0.262284 -0.737442 0.041006 0.784741 -0.080488 -0.638356 -0.504812 0.613126 -0.098688 1.582120 -0.391994 1.296252 0.275616 -0.118941 0.972360 0.547351 -0.623748 -0.143518 0.764614 -1.194091 -0.491253 -1.108888 -0.169917 -0.842718 0.111498 -0.163833 -0.600417 -0.039512 -0.472237 -0.186151
we -0.759113 0.999137 -0.020487 0.236898 0.183023 1.289993 -0.182889 0.918969 1.204700 -0.018534 0.561976 -0.108931 0.161964 -0.806479 -0.850681 0.751673 -1.092098 0.629396 -0.082274 -0.298884 -0.172476 -0.172901 0.672596 -1.070509 0.251036 -0.114169 0.096964 -1.314962 -1.088073 -0.059096 -0.477357 -0.173772 0.855545 0.583120 -0.358919 0.304869 -0.129326 0.673643 0.377882 0.482043 -0.004419 0.939693 0.102162 -0.368084 0.493438 -0.591762 0.088267 1.622550 1.385379 0.817305
argument 0.449163 -1.300523 -0.554784 0.359692 -0.147209 0.165910 0.610065 0.912552 0.558362 -0.039373 1.096446 0.885640 -0.343318 0.719932 0.207849 -0.211618 -0.473462 -0.096200 -0.388189 -0.882600 0.458490 0.916121 -0.470959 0.708921 1.757058 -1.235863 -0.519392 -0.089120 -0.964860 -0.267514 0.067993 0.616500 0.164874 0.057062 0.331746 0.452041 1.319537 -0.099348 -0.698682 -0.734775 -0.378674 0.818172 -0.298690 1.004823 0.710845 -0.870210 -1.121069 1.795301 -0.085276 0.217241
format -1.239302 -0.942937 0.472257 0.761723 -1.458287 0.215342 0.353522 2.146713 -0.327965 -0.669552 0.797050 0.221214 -0.792095 0.221769 0.648083 -0.639941 1.298371 -0.220399 -0.458424 -0.521586 0.875997 1.372711 -0.357519 -0.719391 -0.200465 -0.597548 0.695812 -0.572135 -0.581731 -0.150003 0.900997 -0.735730 0.559664 -0.996918 -0.371264 -0.084766 0.045575 -0.192706 -1.041887 -0.032306 0.389934 -0.169386 0.104719 -0.080295 1.356900 -1.077005 -0.310061 0.694973 -0.571438 0.508413
ran 0.485296 1.416126 0.063589 1.351239 0.356555 0.704010 0.345053 -0.015579 1.030121 -1.179040 -0.066639 -0.818686 -1.484907 -0.014981 0.295024 0.577895 0.320499 -1.115956 0.258818 0.868050 0.034493 -0.194140 -0.325519 1.143368 -0.400375 -0.315497 -0.125545 0.030050 -0.028359 0.126085 0.206107 -0.488017 0.641727 -0.185667 -0.181685 1.190521 0.658174 0.914065 -1.414791 -0.088717 -0.726555 0.336017 -0.154109 -0.341565 -1.526368 -0.976695 0.335050 1.652442 -0.194971 -0.570193
destination 0.014913 1.080348 -0.144871 0.542223 -0.524468 -0.394191 0.251869 0.424317 -0.352793 -1.137897 0.482426 -0.042073 0.747095 -0.734245 -0.647865 -0.493117 -0.210834 -1.474612 0.716903 0.520977 0.799799 -0.558906 0.173837 -0.038192 0.679758 -0.501209 0.933593 0.457111 -1.651497 -1.072882 -1.320727 0.500461 0.166238 0.558954 0.681381 -0.577845 0.326428 -1.061234 0.743925 -0.196604 0.428002 0.215495 -0.191432 -1.427054 -0.671427 -0.769735 -0.458952 -0.102531 -1.462209 -0.003534
{@code 0.059324 -0.003951 0.408270 0.293622 -0.380370 -0.077545 -0.522534 1.567168 0.986278 -0.041885 1.462833 0.849326 1.366120 0.153067 -1.009219 -0.335885 0.699320 1.056779 -0.649269 -0.307350 0.169130 0.650548 1.136798 -0.325642 0.730343 -0.517485 0.684681 0.196376 -0.462648 0.095528 0.009370 -0.006897 1.197987 0.913932 0.325212 -0.471525 -1.220599 -0.399424 -0.883111 0.595294 -0.735049 0.194592 1.574872 0.270070 -0.391273 0.618737 -0.597523 0.802021 -0.285095 -1.164508
cause 0.472397 -0.224849 1.053239 1.179631 -0.834417 -0.705086 -0.400721 1.727304 1.836677 0.953553 0.002907 0.404785 -0.146651 0.347071 0.177376 0.584854 1.117470 -1.361117 -0.292706 -0.756944 0.462824 0.046475 1.257625 0.069523 0.487843 0.164631 -0.791445 -1.029043 -1.697601 0.406689 0.330350 -0.011021 0.296133 0.196497 0.133768 -0.502675 0.873540 0.118307 0.738646 -0.062768 0.401827 -1.567357 -0.129116 1.187050 0.927911 -0.845593 -0.568758 0.781870 0.382151 -0.762456
setting 0.510994 -0.634828 -0.144284 1.575306 0.203646 0.566743 0.211856 -0.222909 0.168992 -0.502378 1.210492 0.476563 0.547649 0.398304 -0.479074 -0.561237 -0.085410 1.655220 -0.580982 -0.634936 -0.237743 -0.921926 -0.577116 0.958423 0.413550 -0.462531 -0.020486 -0.465790 -0.951544 0.199609 0.769698 0.327971 -0.567744 -0.911559 1.174062 0.375013 0.390346 1.051819 -0.137428 1.063562 0.954899 -0.049967 -0.762211 -0.757322 0.218160 -0.665451 0.567304 0.428180 0.176908 -0.852774
date -1.479669 0.366318 0.386223 1.970748 -0.877156 0.285368 1.473783 1.211480 -0.889171 -0.102491 1.039195 1.008730 -0.954471 0.506554 0.936521 0.516776 1.152680 0.907242 -0.017038 -1.046770 0.385098 1.180571 -0.017415 -0.330801 -0.429500 0.021276 1.154667 -0.824706 0.685277 -0.375545 -0.167305 -1.047360 0.414481 -1.139071 -0.030135 1.437634 -0.695109 0.506882 -1.536087 0.664796 -0.302387 0.274827 0.938876 -1.080344 0.150721 -0.349827 0.436726 0.387169 -0.850060 0.411397
check -1.126620 0.901535 0.095558 0.920335 -0.162496 0.144619 0.584990 0.821452 0.500909 0.157445 0.814470 0.128070 0.330488 -0.759504 -0.911777 0.298940 -0.623422 0.651479 -0.907510 -0.189403 0.975022 -0.296173 -0.120155 0.986925 0.683327 -0.117075 -0.565321 -0.661616 -0.967938 0.507281 -0.041258 -0.640195 -0.452966 1.300811 -0.790145 0.101714 0.101229 0.143549 1.125842 -0.722671 -0.147384 0.685427 0.832155 -0.179060 0.084526 -0.547499 0.173799 0.316086 0.306283 1.157345
test 0.053138 0.341327 -0.019421 1.119032 0.059197 0.910503 -0.665415 0.975897 0.238880 -0.208599 -0.943666 -1.230365 0.384790 -0.335495 1.038928 0.902082 -0.646728 -0.038802 0.286836 0.496047 0.357266 0.383277 -0.045989 0.878697 0.923049 -0.818666 -0.619209 -1.087754 -0.661152 -0.355865 0.147957 -0.435801 -0.186630 0.442854 -0.380020 0.712267 -0.437105 0.787274 -1.056211 -0.113265 -0.344306 0.371735 0.557857 -0.709355 -0.348191 -0.994680 0.602432 1.273695 0.288783 0.743168
default 0.533807 -0.359174 0.114963 0.841591 0.268120 -0.338603 0.328007 0.510090 -0.018966 -0.901251 0.742108 0.868889 0.635835 0.328739 0.015822 -0.167202 -0.585665 0.603846 0.045172 -0.605986 0.632043 0.119636 -0.589589 -0.100879 -0.341507 -0.579905 0.209734 -0.814506 -1.198765 0.966719 0.263472 -0.152162 -0.318089 0.394945 0.061158 -0.796743 -0.299870 -0.597169 -0.286777 -0.343287 0.907692 -0.978160 0.535490 -1.431856 0.048643 0.184765 -0.456440 0.169657 -1.057733 0.055310
token 0.153492 0.034696 -1.130639 1.591114 -1.642753 0.135210 -0.259234 -0.556327 -0.394488 -0.287914 -1.601496 0.523594 -0.859741 0.780948 -0.079104 -0.420377 -0.500817 0.587561 0.920651 -0.120761 0.705538 1.127591 -0.061797 0.988623 -0.097196 -0.609819 1.262322 0.158558 -0.869171 -0.563651 0.637356 1.145298 -0.303300 -0.293021 -1.408841 1.067393 0.661417 -0.770637 -1.022107 1.702387 -0.654583 0.293593 -0.511015 1.411719 0.530752 0.451368 -0.230258 0.615731 0.146085 -0.113553
close -0.910817 1.530270 1.282692 0.743140 -0.298484 -1.028891 -0.102006 0.633130 -0.093628 0.026038 -0.392548 -0.459895 -0.771058 0.069287 -0.446041 -0.520391 1.224892 0.208649 0.726192 -0.502365 0.056995 -0.704952 1.287567 -0.035835 0.605670 -0.869710 0.184415 -0.369241 -0.625704 0.531719 0.781607 0.452639 0.081238 0.085259 -0.119848 -0.953372 0.401416 -0.382401 0.721405 -1.916939 -0.971744 0.507081 -1.640222 0.236413 -0.017290 -0.392429 -0.785999 0.471972 0.483477 -0.576190
transport 0.358024 0.478434 0.901503 0.767532 0.427650 -0.723530 0.082982 -0.057985 0.005397 0.620350 -1.322308 0.368853 0.064307 -0.142610 0.279348 -0.100304 0.031815 0.761173 1.460285 -1.500133 -0.716729 0.159161 0.048360 1.050614 0.322560 -0.115415 -0.813801 -1.458019 -0.689266 0.219115 0.425776 -1.248695 -0.577596 0.738266 0.227530 0.953155 -0.162844 0.367564 -0.003511 -1.157232 -0.301187 -0.011798 -0.255223 -1.199933 -0.906918 -0.381290 0.644664 -0.139722 -0.202227 0.480170
print -0.291917 0.206315 0.265026 0.928549 -0.724829 -1.536400 -0.335676 1.840567 0.674408 0.283126 -0.939790 0.670813 -0.418288 1.319402 -1.589839 0.116281 -0.060204 -1.012479 -0.371916 -0.549584 -0.909596 -0.694490 0.014997 1.456851 0.588149 0.168194 -0.624664 -0.128619 -0.689224 1.136346 -0.370005 0.160890 0.000759 0.342695 0.162004 -0.573024 0.558760 -0.859129 0.731114 -0.426954 -0.756887 -1.349247 -0.253279 1.104874 -0.300738 0.716163 1.038868 1.102897 1.324015 -0.187850
system -0.367848 1.117945 0.086938 1.554827 -0.505246 0.213570 0.146492 0.886583 0.960463 -0.067205 0.496902 0.607845 -0.477227 0.508171 -0.678736 0.122852 0.821345 0.570225 0.004438 -0.825271 -0.419011 0.027161 0.200566 1.986313 0.610679 0.623253 0.818880 0.059128 -1.142017 0.819664 -0.213633 -0.865083 0.295088 -0.795742 -0.493546 -0.948083 0.617794 -0.140791 -0.207016 0.156307 0.624495 0.232527 -1.249471 0.153214 0.654684 0.964768 0.381136 0.532235 0.341317 -1.063167
term 0.736285 -0.143345 -0.058195 1.051840 -0.610984 0.563294 0.231965 0.475098 1.143917 -0.738148 -0.931810 -0.070883 0.024256 -0.532084 0.288143 0.703449 0.176441 -0.041673 -0.554932 1.219631 1.438660 0.392555 -1.321235 -0.486811 -0.168027 0.144729 0.168873 0.410945 -0.160684 0.087156 0.447516 0.859383 -0.476029 -1.586860 -0.732816 0.273727 0.528903 0.164663 0.281358 -0.726330 -1.749229 -1.354405 0.524439 -0.716336 0.894274 -0.186499 0.197060 1.487851 0.704025 0.018626
fields 0.444611 0.632771 -0.784110 1.869420 -0.711914 0.773991 0.124841 -0.067143 0.841434 -1.029513 0.241583 -0.234668 -0.452150 0.428442 0.091314 0.571604 0.750914 0.179111 -1.815118 -0.269757 1.248578 0.109452 -0.489423 0.125008 0.584470 -0.103747 0.014669 -0.689062 0.345464 -1.313250 1.519706 0.458833 0.194283 0.798370 -0.787422 -0.372102 0.556603 -0.003705 -0.393221 0.066341 0.609299 -0.465721 0.606476 -0.010690 0.043251 -0.809683 -0.432832 0.106526 0.457295 1.018849
only 0.086127 -0.506977 -0.231939 0.619692 -0.367526 0.053453 0.840429 0.646492 0.098853 0.147501 -0.486008 -0.093219 0.142064 0.216907 -1.517167 1.084205 0.158913 0.113608 0.511661 -0.223003 -0.336204 -0.146310 0.280904 -1.344957 0.380510 0.022737 0.056375 -1.446869 -1.512963 -0.006491 -0.157701 0.687930 -0.178278 0.548455 0.503297 -0.859201 0.697621 0.333985 -0.724731 -0.249679 -0.261765 0.820081 0.080248 -1.350832 0.322840 -0.168814 -0.234434 1.120716 0.538830 0.448871
config -0.048836 0.501468 0.459445 0.944046 0.411774 0.484903 0.552264 -0.084659 0.918586 -0.311813 0.226831 -1.180706 -0.259140 0.053628 -0.858841 -0.334818 0.125313 0.500513 0.576605 -0.163884 -0.513002 -0.733822 -0.825375 1.366314 0.549126 -1.705154 0.184170 -0.177134 -0.949233 -0.313059 0.954122 -1.111351 -1.717646 1.024397 -0.631058 -0.359363 -0.278945 0.111393 -0.099419 -1.126631 1.227453 -0.357588 0.213051 -1.354218 0.555187 -1.193742 0.255978 -0.406266 -0.777489 -0.430645
resources 0.904514 0.117888 0.471791 -0.112761 -0.774321 -0.207663 -0.800799 0.484748 -0.179866 -0.513196 -0.026783 -0.685736 -0.235043 -0.176820 -0.631736 -0.931509 0.900623 -1.697144 0.710007 -0.988330 0.778188 -0.349100 -0.549771 -0.111742 1.167712 -0.859986 -0.013950 -0.225144 -0.367333 1.305979 0.025558 -1.214662 0.233692 0.363799 -0.067289 0.041760 -0.554286 -0.033985 0.186889 0.446193 1.000382 0.302813 -1.888295 -0.862068 0.325195 0.110460 -0.438448 0.908133 -0.493176 -0.470854
transaction -0.439321 0.512059 0.633974 0.280023 -0.441357 0.386858 -0.940688 0.133674 -0.580481 -0.611427 0.542589 0.145250 -0.928808 -1.700388 -0.416186 -0.859339 0.280814 -0.418681 0.668233 0.785300 0.560210 0.320966 0.469061 1.126303 0.414773 -0.001681 0.233192 -0.441694 -1.080634 1.110641 -1.313972 -0.992901 0.281683 0.072885 0.737206 -0.456979 -0.791475 0.794596 -0.696181 -0.401614 1.447477 0.224227 0.162356 0.757993 -0.096496 -0.007954 -0.593826 0.471381 -0.514828 0.553591
prop -0.220055 -0.361160 -0.328343 0.453719 0.237599 -1.791827 1.828299 0.003457 0.260384 -0.945307 0.654978 -0.070520 -0.538322 1.046451 -1.047898 -0.425036 1.044739 0.545128 -0.223512 1.322284 0.398352 -0.337459 -1.102377 1.094865 1.057942 -0.765841 0.225668 0.842270 -0.240994 0.799850 -0.827197 -0.124494 -1.457960 -0.694328 -0.059227 -0.631610 0.544375 -0.244126 -0.421492 0.511198 -0.012343 0.545394 0.129348 -0.534056 -0.475366 -0.414095 0.709031 0.480416 -0.066935 -0.416244
